{"learner":{"attributes":{"best_iteration":"144","best_score":"17142.48642349402","scikit_learn":"{\"_estimator_type\": \"regressor\"}"},"feature_names":[],"feature_types":[],"gradient_booster":{"model":{"cats":{"enc":[],"feature_segments":[],"sorted_idx":[]},"gbtree_model_param":{"num_parallel_tree":"1","num_trees":"195"},"iteration_indptr":[0,1,2,3,4,5,6,7,8,9,10,11,12,13,14,15,16,17,18,19,20,21,22,23,24,25,26,27,28,29,30,31,32,33,34,35,36,37,38,39,40,41,42,43,44,45,46,47,48,49,50,51,52,53,54,55,56,57,58,59,60,61,62,63,64,65,66,67,68,69,70,71,72,73,74,75,76,77,78,79,80,81,82,83,84,85,86,87,88,89,90,91,92,93,94,95,96,97,98,99,100,101,102,103,104,105,106,107,108,109,110,111,112,113,114,115,116,117,118,119,120,121,122,123,124,125,126,127,128,129,130,131,132,133,134,135,136,137,138,139,140,141,142,143,144,145,146,147,148,149,150,151,152,153,154,155,156,157,158,159,160,161,162,163,164,165,166,167,168,169,170,171,172,173,174,175,176,177,178,179,180,181,182,183,184,185,186,187,188,189,190,191,192,193,194,195],"tree_info":[0,0,0,0,0,0,0,0,0,0,0,0,0,0,0,0,0,0,0,0,0,0,0,0,0,0,0,0,0,0,0,0,0,0,0,0,0,0,0,0,0,0,0,0,0,0,0,0,0,0,0,0,0,0,0,0,0,0,0,0,0,0,0,0,0,0,0,0,0,0,0,0,0,0,0,0,0,0,0,0,0,0,0,0,0,0,0,0,0,0,0,0,0,0,0,0,0,0,0,0,0,0,0,0,0,0,0,0,0,0,0,0,0,0,0,0,0,0,0,0,0,0,0,0,0,0,0,0,0,0,0,0,0,0,0,0,0,0,0,0,0,0,0,0,0,0,0,0,0,0,0,0,0,0,0,0,0,0,0,0,0,0,0,0,0,0,0,0,0,0,0,0,0,0,0,0,0,0,0,0,0,0,0,0,0,0,0,0,0,0,0,0,0,0,0],"trees":[{"base_weights":[-3.9264047E2,-1.2446283E4,1.6322939E4,-1.9186555E4,-6.004399E3,9.70605E3,2.915598E4,-2.2845632E3,-1.4545057E3,-9.051729E3,-3.0009512E3,5.216371E3,1.3219107E4,2.3138218E3,3.2078584E3,-1.0246652E3,-6.5626953E2,-3.9753845E2,1.1613307E1,3.203046E2,6.728474E2,1.0689248E3,1.5732206E3],"categories":[],"categories_nodes":[],"categories_segments":[],"categories_sizes":[],"default_left":[0,0,0,0,0,0,0,0,0,0,0,0,0,0,0,0,0,0,0,0,0,0,0],"id":0,"left_children":[1,3,5,7,9,11,13,-1,-1,15,17,19,21,-1,-1,-1,-1,-1,-1,-1,-1,-1,-1],"loss_changes":[1.8657719E11,2.3129588E10,3.238096E10,3.7851136E9,2.490065E9,3.9471616E9,8.194785E8,0E0,0E0,2.729728E8,4.3527066E8,3.1308544E8,5.791867E8,0E0,0E0,0E0,0E0,0E0,0E0,0E0,0E0,0E0,0E0],"parents":[2147483647,0,0,1,1,2,2,3,3,4,4,5,5,6,6,9,9,10,10,11,11,12,12],"right_children":[2,4,6,8,10,12,14,-1,-1,16,18,20,22,-1,-1,-1,-1,-1,-1,-1,-1,-1,-1],"split_conditions":[1.1092594E-1,-7.466519E-1,1.2488518E0,-1.151475E0,-3.6750308E-1,5.3351736E-1,1.625939E0,-2.2845632E3,-1.4545057E3,-4.7251278E-1,-8.903353E-2,3.1009927E-1,8.1251293E-1,2.3138218E3,3.2078584E3,-1.0246652E3,-6.5626953E2,-3.9753845E2,1.1613307E1,3.203046E2,6.728474E2,1.0689248E3,1.5732206E3],"split_indices":[1,1,1,27,1,1,1,0,0,90,1,1,1,0,0,0,0,0,0,0,0,0,0],"split_type":[0,0,0,0,0,0,0,0,0,0,0,0,0,0,0,0,0,0,0,0,0,0,0],"sum_hessian":[9.22E2,5.36E2,3.86E2,2.6E2,2.76E2,2.57E2,1.29E2,1.41E2,1.19E2,1.35E2,1.41E2,1.15E2,1.42E2,4.8E1,8.1E1,8.7E1,4.8E1,1.07E2,3.4E1,5.2E1,6.3E1,7.6E1,6.6E1],"tree_param":{"num_deleted":"0","num_feature":"116","num_nodes":"23","size_leaf_vector":"1"}},{"base_weights":[-1.0025566E2,-1.0584918E4,1.5787925E4,-1.6696627E4,-4.166167E3,8.892501E3,2.572587E4,-2.0538906E3,-1.283591E3,-6.8527085E3,-1.4972443E3,5.019178E3,1.1205088E4,2.0725786E3,2.855034E3,-8.552739E2,-5.5126184E2,-2.843144E2,9.583444E1,3.5336044E2,6.4766266E2,8.856826E2,1.2948563E3],"categories":[],"categories_nodes":[],"categories_segments":[],"categories_sizes":[],"default_left":[0,0,0,0,0,0,0,0,0,0,0,0,0,0,0,0,0,0,0,0,0,0,0],"id":1,"left_children":[1,3,5,7,9,11,13,-1,-1,15,17,19,21,-1,-1,-1,-1,-1,-1,-1,-1,-1,-1],"loss_changes":[1.5042478E11,2.1201752E10,2.4143421E10,3.5965583E9,1.9010842E9,1.8133586E9,8.7842816E8,0E0,0E0,2.0870298E8,4.5823126E8,1.3609971E8,3.1515034E8,0E0,0E0,0E0,0E0,0E0,0E0,0E0,0E0,0E0,0E0],"parents":[2147483647,0,0,1,1,2,2,3,3,4,4,5,5,6,6,9,9,10,10,11,11,12,12],"right_children":[2,4,6,8,10,12,14,-1,-1,16,18,20,22,-1,-1,-1,-1,-1,-1,-1,-1,-1,-1],"split_conditions":[1.4983624E-1,-6.9292015E-1,1.1119434E0,-1.0744293E0,-2.778924E-1,5.3351736E-1,1.6481715E0,-2.0538906E3,-1.283591E3,-4.5072314E-1,-3.7012283E-2,3.375637E-1,7.448524E-1,2.0725786E3,2.855034E3,-8.552739E2,-5.5126184E2,-2.843144E2,9.583444E1,3.5336044E2,6.4766266E2,8.856826E2,1.2948563E3],"split_indices":[2,1,2,87,87,1,2,0,0,84,1,84,1,0,0,0,0,0,0,0,0,0,0],"split_type":[0,0,0,0,0,0,0,0,0,0,0,0,0,0,0,0,0,0,0,0,0,0,0],"sum_hessian":[8.99E2,5.42E2,3.57E2,2.76E2,2.66E2,2.13E2,1.44E2,1.34E2,1.42E2,1.31E2,1.35E2,8.2E1,1.31E2,5.8E1,8.6E1,5.3E1,7.8E1,8.7E1,4.8E1,4.4E1,3.8E1,6.1E1,7E1],"tree_param":{"num_deleted":"0","num_feature":"116","num_nodes":"23","size_leaf_vector":"1"}},{"base_weights":[1.9554634E2,-9.779188E3,1.3103026E4,-1.5539042E4,-4.465492E3,7.5004854E3,2.2101777E4,-1.8666864E3,-1.1935792E3,-6.6237666E3,-1.2842339E3,4.599981E3,1.027903E4,1.7969414E3,2.5499067E3,-8.2151117E2,-4.8668262E2,-2.461261E2,7.386293E1,3.2958438E2,5.9029126E2,7.8984E2,1.1641921E3],"categories":[],"categories_nodes":[],"categories_segments":[],"categories_sizes":[],"default_left":[0,0,0,0,0,0,0,0,0,0,0,0,0,0,0,0,0,0,0,0,0,0,0],"id":2,"left_children":[1,3,5,7,9,11,13,-1,-1,15,17,19,21,-1,-1,-1,-1,-1,-1,-1,-1,-1,-1],"loss_changes":[1.1548634E11,1.5347913E10,1.938106E10,2.281808E9,1.8093496E9,1.871873E9,1.1753718E9,0E0,0E0,3.617874E8,2.655422E8,1.7009075E8,2.151721E8,0E0,0E0,0E0,0E0,0E0,0E0,0E0,0E0,0E0,0E0],"parents":[2147483647,0,0,1,1,2,2,3,3,4,4,5,5,6,6,9,9,10,10,11,11,12,12],"right_children":[2,4,6,8,10,12,14,-1,-1,16,18,20,22,-1,-1,-1,-1,-1,-1,-1,-1,-1,-1],"split_conditions":[1.5178047E-1,-7.5797117E-1,1.0181429E0,-1.1718441E0,-2.9142338E-1,5.5905026E-1,1.6294738E0,-1.8666864E3,-1.1935792E3,-4.5072314E-1,-4.99407E-2,3.484204E-1,7.524207E-1,1.7969414E3,2.5499067E3,-8.2151117E2,-4.8668262E2,-2.461261E2,7.386293E1,3.2958438E2,5.9029126E2,7.8984E2,1.1641921E3],"split_indices":[84,84,86,27,84,86,86,0,0,84,84,84,84,0,0,0,0,0,0,0,0,0,0],"split_type":[0,0,0,0,0,0,0,0,0,0,0,0,0,0,0,0,0,0,0,0,0,0,0],"sum_hessian":[8.93E2,5.04E2,3.89E2,2.4E2,2.64E2,2.42E2,1.47E2,1.24E2,1.16E2,1.56E2,1.08E2,1.21E2,1.21E2,7.2E1,7.5E1,7.8E1,7.8E1,6.8E1,4E1,6.4E1,5.7E1,4.9E1,7.2E1],"tree_param":{"num_deleted":"0","num_feature":"116","num_nodes":"23","size_leaf_vector":"1"}},{"base_weights":[6.496256E1,-8.700199E3,1.20803E4,-1.5648299E4,-5.0694873E3,7.5643623E3,2.0628562E4,-1.7082946E3,-1.2054027E3,-7.930197E3,-2.472989E3,4.9162173E3,1.0549859E4,1.8234641E3,2.455278E3,-8.9510187E2,-6.124149E2,-3.4003424E2,3.1537916E1,3.116323E2,6.2498975E2,8.268426E2,1.140544E3],"categories":[],"categories_nodes":[],"categories_segments":[],"categories_sizes":[],"default_left":[0,0,0,0,0,0,0,0,0,0,0,0,0,0,0,0,0,0,0,0,0,0,0],"id":3,"left_children":[1,3,5,7,9,11,13,-1,-1,15,17,19,21,-1,-1,-1,-1,-1,-1,-1,-1,-1,-1],"loss_changes":[9.762786E10,1.3362766E10,1.4781858E10,5.3180006E8,2.5976556E9,1.9439299E9,3.634012E8,0E0,0E0,2.000978E8,4.908617E8,2.9951386E8,4.562227E7,0E0,0E0,0E0,0E0,0E0,0E0,0E0,0E0,0E0,0E0],"parents":[2147483647,0,0,1,1,2,2,3,3,4,4,5,5,6,6,9,9,10,10,11,11,12,12],"right_children":[2,4,6,8,10,12,14,-1,-1,16,18,20,22,-1,-1,-1,-1,-1,-1,-1,-1,-1,-1],"split_conditions":[1.2791419E-1,-8.5860294E-1,1.2488518E0,-1.2611188E0,-4.2768773E-1,6.0892314E-1,1.826438E0,-1.7082946E3,-1.2054027E3,-5.965604E-1,-8.903353E-2,3.642604E-1,7.9423475E-1,1.8234641E3,2.455278E3,-8.9510187E2,-6.124149E2,-3.4003424E2,3.1537916E1,3.116323E2,6.2498975E2,8.268426E2,1.140544E3],"split_indices":[2,1,1,2,1,1,1,0,0,2,1,2,1,0,0,0,0,0,0,0,0,0,0],"split_type":[0,0,0,0,0,0,0,0,0,0,0,0,0,0,0,0,0,0,0,0,0,0,0],"sum_hessian":[9.23E2,5.34E2,3.89E2,1.81E2,3.53E2,2.57E2,1.32E2,1.24E2,5.7E1,1.66E2,1.87E2,1.39E2,1.18E2,8.9E1,4.3E1,1.01E2,6.5E1,1.4E2,4.7E1,6.2E1,7.7E1,3.8E1,8E1],"tree_param":{"num_deleted":"0","num_feature":"116","num_nodes":"23","size_leaf_vector":"1"}},{"base_weights":[-4.210355E2,-8.0815776E3,1.1176149E4,-1.3303182E4,-4.0734966E3,6.700306E3,1.8983836E4,-1.5255155E3,-1.0245796E3,-6.323909E3,-1.5948237E3,4.4983223E3,9.477677E2,1.603519E3,2.2138572E3,-7.2916473E2,-4.419059E2,-2.7551312E2,-2.9916182E1,3.1051553E2,5.840383E2],"categories":[],"categories_nodes":[],"categories_segments":[],"categories_sizes":[],"default_left":[0,0,0,0,0,0,0,0,0,0,0,0,0,0,0,0,0,0,0,0,0],"id":4,"left_children":[1,3,5,7,9,11,13,-1,-1,15,17,19,-1,-1,-1,-1,-1,-1,-1,-1,-1],"loss_changes":[8.218063E10,1.1548856E10,1.2605723E10,1.1256668E9,1.753644E9,1.3641585E9,5.2719616E8,0E0,0E0,2.4155853E8,2.298696E8,2.1800986E8,0E0,0E0,0E0,0E0,0E0,0E0,0E0,0E0,0E0],"parents":[2147483647,0,0,1,1,2,2,3,3,4,4,5,5,6,6,9,9,10,10,11,11],"right_children":[2,4,6,8,10,12,14,-1,-1,16,18,20,-1,-1,-1,-1,-1,-1,-1,-1,-1],"split_conditions":[1.6517787E-1,-8.1190145E-1,1.2488518E0,-1.211557E0,-3.3465406E-1,6.525662E-1,1.762606E0,-1.5255155E3,-1.0245796E3,-5.1977164E-1,-1.8608199E-1,4.2925927E-1,9.477677E2,1.603519E3,2.2138572E3,-7.2916473E2,-4.419059E2,-2.7551312E2,-2.9916182E1,3.1051553E2,5.840383E2],"split_indices":[1,2,1,87,2,2,87,0,0,2,87,2,0,0,0,0,0,0,0,0,0],"split_type":[0,0,0,0,0,0,0,0,0,0,0,0,0,0,0,0,0,0,0,0,0],"sum_hessian":[9.21E2,5.55E2,3.66E2,2.39E2,3.16E2,2.35E2,1.31E2,1.41E2,9.8E1,1.64E2,1.52E2,1.34E2,1.01E2,7.4E1,5.7E1,1.05E2,5.9E1,7.9E1,7.3E1,6.9E1,6.5E1],"tree_param":{"num_deleted":"0","num_feature":"116","num_nodes":"21","size_leaf_vector":"1"}},{"base_weights":[-7.9559064E0,-7.070751E3,1.0113571E4,-1.0906956E4,-2.829162E3,6.008403E3,1.7766375E4,-1.3626854E3,-8.2947705E3,-4.3052363E3,-8.066344E2,4.2096035E3,8.8735956E2,1.5334016E3,2.0918696E3,-9.68632E2,-7.541491E2,-5.27444E2,-3.428573E2,-1.6921745E2,3.7683113E1,2.5290508E2,5.08267E2],"categories":[],"categories_nodes":[],"categories_segments":[],"categories_sizes":[],"default_left":[0,0,0,0,0,0,0,0,0,0,0,0,0,0,0,0,0,0,0,0,0,0,0],"id":5,"left_children":[1,3,5,7,9,11,13,-1,15,17,19,21,-1,-1,-1,-1,-1,-1,-1,-1,-1,-1,-1],"loss_changes":[6.626783E10,8.822583E9,1.1756016E10,1.8059264E9,7.7522906E8,1.2189204E9,3.705815E8,0E0,1.2181504E7,9.213107E7,1.1970015E8,2.0611354E8,0E0,0E0,0E0,0E0,0E0,0E0,0E0,0E0,0E0,0E0,0E0],"parents":[2147483647,0,0,1,1,2,2,3,3,4,4,5,5,6,6,8,8,9,9,10,10,11,11],"right_children":[2,4,6,8,10,12,14,-1,16,18,20,22,-1,-1,-1,-1,-1,-1,-1,-1,-1,-1,-1],"split_conditions":[1.7684156E-1,-6.5036577E-1,1.2488518E0,-1.0350227E0,-2.6287973E-1,6.929601E-1,1.8812833E0,-1.3626854E3,-8.985546E-1,-3.9882487E-1,-1.1041392E-1,3.680095E-1,8.8735956E2,1.5334016E3,2.0918696E3,-9.68632E2,-7.541491E2,-5.27444E2,-3.428573E2,-1.6921745E2,3.7683113E1,2.5290508E2,5.08267E2],"split_indices":[1,87,1,1,1,1,87,0,86,86,87,1,0,0,0,0,0,0,0,0,0,0,0],"split_type":[0,0,0,0,0,0,0,0,0,0,0,0,0,0,0,0,0,0,0,0,0,0,0],"sum_hessian":[9.23E2,5.44E2,3.79E2,2.84E2,2.6E2,2.49E2,1.3E2,1.35E2,1.49E2,1.49E2,1.11E2,1.56E2,9.3E1,8E1,5E1,4.4E1,1.05E2,6.6E1,8.3E1,6.3E1,4.8E1,5.6E1,1E2],"tree_param":{"num_deleted":"0","num_feature":"116","num_nodes":"23","size_leaf_vector":"1"}},{"base_weights":[2.0337604E2,-6.7266304E3,8.567345E3,-1.1556527E4,-4.0010884E3,4.9476606E3,1.5711536E4,-1.2988663E3,-9.735963E2,-6.26525E3,-2.1905542E3,2.7487285E3,7.2177793E3,1.3433934E3,1.8217024E3,-6.768309E2,-4.8773672E2,-2.9295923E2,-6.786644E1,1.5838782E2,3.6731372E2,5.738066E2,8.5124084E2],"categories":[],"categories_nodes":[],"categories_segments":[],"categories_sizes":[],"default_left":[0,0,0,0,0,0,0,0,0,0,0,0,0,0,0,0,0,0,0,0,0,0,0],"id":6,"left_children":[1,3,5,7,9,11,13,-1,-1,15,17,19,21,-1,-1,-1,-1,-1,-1,-1,-1,-1,-1],"loss_changes":[5.4368027E10,6.6607E9,1.0834911E10,2.268242E8,1.3294326E9,1.3829934E9,3.2086426E8,0E0,0E0,3.591117E7,2.0496666E8,1.4772992E8,1.6858829E8,0E0,0E0,0E0,0E0,0E0,0E0,0E0,0E0,0E0,0E0],"parents":[2147483647,0,0,1,1,2,2,3,3,4,4,5,5,6,6,9,9,10,10,11,11,12,12],"right_children":[2,4,6,8,10,12,14,-1,-1,16,18,20,22,-1,-1,-1,-1,-1,-1,-1,-1,-1,-1],"split_conditions":[4.3810472E-2,-8.8660216E-1,1.2440299E0,-1.3290011E0,-4.2814237E-1,5.6352264E-1,1.7814054E0,-1.2988663E3,-9.735963E2,-6.304903E-1,-1.8629287E-1,2.8506327E-1,8.1571203E-1,1.3433934E3,1.8217024E3,-6.768309E2,-4.8773672E2,-2.9295923E2,-6.786644E1,1.5838782E2,3.6731372E2,5.738066E2,8.5124084E2],"split_indices":[2,84,2,84,2,2,87,0,0,2,2,2,87,0,0,0,0,0,0,0,0,0,0],"split_type":[0,0,0,0,0,0,0,0,0,0,0,0,0,0,0,0,0,0,0,0,0,0,0],"sum_hessian":[9.34E2,5.11E2,4.23E2,1.82E2,3.29E2,2.83E2,1.4E2,9.5E1,8.7E1,1.44E2,1.85E2,1.46E2,1.37E2,8E1,6E1,1E2,4.4E1,1.23E2,6.2E1,6.7E1,7.9E1,6.9E1,6.8E1],"tree_param":{"num_deleted":"0","num_feature":"116","num_nodes":"23","size_leaf_vector":"1"}},{"base_weights":[-4.146996E1,-5.8711733E3,8.1477295E3,-9.674928E3,-3.0538708E3,4.390993E3,1.3677019E4,-1.1243505E3,-7.62329E2,-4.5357275E3,-1.1197064E3,2.5532588E3,5.804499E3,1.0240203E3,1.5540092E3,-5.472758E2,-3.4278397E2,-1.8474455E2,1.1889781E0,1.8357945E2,3.2268652E2,4.6958237E2,6.690262E2],"categories":[],"categories_nodes":[],"categories_segments":[],"categories_sizes":[],"default_left":[0,0,0,0,0,0,0,0,0,0,0,0,0,0,0,0,0,0,0,0,0,0,0],"id":7,"left_children":[1,3,5,7,9,11,13,-1,-1,15,17,19,21,-1,-1,-1,-1,-1,-1,-1,-1,-1,-1],"loss_changes":[4.3969286E10,5.706293E9,7.835599E9,5.623112E8,8.840824E8,5.704156E8,6.6779546E8,0E0,0E0,1.4518963E8,1.1368805E8,3.841376E7,6.384691E7,0E0,0E0,0E0,0E0,0E0,0E0,0E0,0E0,0E0,0E0],"parents":[2147483647,0,0,1,1,2,2,3,3,4,4,5,5,6,6,9,9,10,10,11,11,12,12],"right_children":[2,4,6,8,10,12,14,-1,-1,16,18,20,22,-1,-1,-1,-1,-1,-1,-1,-1,-1,-1],"split_conditions":[1.0827055E-1,-8.0358833E-1,9.8663056E-1,-1.2535356E0,-3.442923E-1,5.096153E-1,1.5132525E0,-1.1243505E3,-7.62329E2,-5.7564753E-1,-1.5743993E-1,3.4520233E-1,6.8452495E-1,1.0240203E3,1.5540092E3,-5.472758E2,-3.4278397E2,-1.8474455E2,1.1889781E0,1.8357945E2,3.2268652E2,4.6958237E2,6.690262E2],"split_indices":[2,2,2,1,1,2,2,0,0,1,1,1,2,0,0,0,0,0,0,0,0,0,0],"split_type":[0,0,0,0,0,0,0,0,0,0,0,0,0,0,0,0,0,0,0,0,0,0,0],"sum_hessian":[9.17E2,5.36E2,3.81E2,2.26E2,3.1E2,2.29E2,1.52E2,1.23E2,1.03E2,1.74E2,1.36E2,1.02E2,1.27E2,5.8E1,9.4E1,9E1,8.4E1,8.2E1,5.4E1,5.3E1,4.9E1,6.2E1,6.5E1],"tree_param":{"num_deleted":"0","num_feature":"116","num_nodes":"23","size_leaf_vector":"1"}},{"base_weights":[2.5492976E0,-5.1061025E3,7.430792E3,-8.0024062E3,-1.9709265E3,4.8483726E3,1.3072705E4,-9.8642395E2,-6.1457563E3,-3.2910703E3,-6.309208E2,3.3369653E3,6.839329E3,1.0972816E3,1.4693859E3,-7.1858636E2,-5.566379E2,-4.131611E2,-2.8723117E2,-1.2878014E2,5.3431576E1,2.2275005E2,4.155651E2,5.6513684E2,7.800185E2],"categories":[],"categories_nodes":[],"categories_segments":[],"categories_sizes":[],"default_left":[0,0,0,0,0,0,0,0,0,0,0,0,0,0,0,0,0,0,0,0,0,0,0,0,0],"id":8,"left_children":[1,3,5,7,9,11,13,-1,15,17,19,21,23,-1,-1,-1,-1,-1,-1,-1,-1,-1,-1,-1,-1],"loss_changes":[3.4457055E10,4.853723E9,5.2640563E9,8.431903E8,4.5755578E8,7.277051E8,6.901965E7,0E0,7.379456E6,2.2374656E7,1.0241186E8,1.1773133E8,3.625421E7,0E0,0E0,0E0,0E0,0E0,0E0,0E0,0E0,0E0,0E0,0E0,0E0],"parents":[2147483647,0,0,1,1,2,2,3,3,4,4,5,5,6,6,8,8,9,9,10,10,11,11,12,12],"right_children":[2,4,6,8,10,12,14,-1,16,18,20,22,24,-1,-1,-1,-1,-1,-1,-1,-1,-1,-1,-1,-1],"split_conditions":[1.9928402E-1,-6.5036577E-1,1.324482E0,-1.0206022E0,-2.75858E-1,6.9671017E-1,1.771066E0,-9.8642395E2,-9.2212754E-1,-5.1977164E-1,-3.8373824E-2,4.416474E-1,9.3063647E-1,1.0972816E3,1.4693859E3,-7.1858636E2,-5.566379E2,-4.131611E2,-2.8723117E2,-1.2878014E2,5.3431576E1,2.2275005E2,4.155651E2,5.6513684E2,7.800185E2],"split_indices":[2,87,2,91,2,2,86,0,2,2,86,86,86,0,0,0,0,0,0,0,0,0,0,0,0],"split_type":[0,0,0,0,0,0,0,0,0,0,0,0,0,0,0,0,0,0,0,0,0,0,0,0,0],"sum_hessian":[9.04E2,5.36E2,3.68E2,2.77E2,2.59E2,2.55E2,1.13E2,1.34E2,1.43E2,1.29E2,1.3E2,1.48E2,1.07E2,5.6E1,5.7E1,4.3E1,1E2,3.7E1,9.2E1,8.3E1,4.7E1,6.6E1,8.2E1,5.4E1,5.3E1],"tree_param":{"num_deleted":"0","num_feature":"116","num_nodes":"25","size_leaf_vector":"1"}},{"base_weights":[-6.843807E1,-5.013326E3,6.2807446E3,-8.54223E3,-2.9753967E3,3.3069053E3,1.0900286E4,-9.866409E2,-7.308428E2,-4.696951E3,-1.8208589E3,1.7286227E3,4.631819E3,7.852043E2,1.2244096E4,-5.0495752E2,-3.8064563E2,-2.3798698E2,-9.477337E1,1.106075E2,2.2073564E2,4.0749142E2,5.560403E2,1.0787959E3,1.4846154E3],"categories":[],"categories_nodes":[],"categories_segments":[],"categories_sizes":[],"default_left":[0,0,0,0,0,0,0,0,0,0,0,0,0,0,0,0,0,0,0,0,0,0,0,0,0],"id":9,"left_children":[1,3,5,7,9,11,13,-1,-1,15,17,19,21,-1,23,-1,-1,-1,-1,-1,-1,-1,-1,-1,-1],"loss_changes":[2.8539144E10,3.624103E9,5.395539E9,1.5966618E8,6.328397E8,4.9630285E8,4.426363E8,0E0,0E0,2.37824E6,9.261792E7,2.9390624E7,2.2944256E7,0E0,7.3728E7,0E0,0E0,0E0,0E0,0E0,0E0,0E0,0E0,0E0,0E0],"parents":[2147483647,0,0,1,1,2,2,3,3,4,4,5,5,6,6,9,9,10,10,11,11,12,12,14,14],"right_children":[2,4,6,8,10,12,14,-1,-1,16,18,20,22,-1,24,-1,-1,-1,-1,-1,-1,-1,-1,-1,-1],"split_conditions":[-4.3798643E-3,-9.2212754E-1,9.949843E-1,-1.3648607E0,-5.716506E-1,5.016396E-1,1.4642333E0,-9.866409E2,-7.308428E2,-6.8590695E-1,-2.315538E-1,2.4421868E-1,7.636648E-1,7.852043E2,2.0030503E0,-5.0495752E2,-3.8064563E2,-2.3798698E2,-9.477337E1,1.106075E2,2.2073564E2,4.0749142E2,5.560403E2,1.0787959E3,1.4846154E3],"split_indices":[2,2,84,2,87,2,2,0,0,2,84,2,2,0,2,0,0,0,0,0,0,0,0,0,0],"split_type":[0,0,0,0,0,0,0,0,0,0,0,0,0,0,0,0,0,0,0,0,0,0,0,0,0],"sum_hessian":[9.05E2,5.09E2,3.96E2,1.84E2,3.25E2,2.43E2,1.53E2,8.2E1,1.02E2,1.28E2,1.97E2,1.13E2,1.3E2,5.1E1,1.02E2,8.5E1,4.3E1,1.18E2,7.9E1,5.2E1,6.1E1,8.8E1,4.2E1,7.2E1,3E1],"tree_param":{"num_deleted":"0","num_feature":"116","num_nodes":"25","size_leaf_vector":"1"}},{"base_weights":[-1.2704408E2,-4.5921694E3,5.688381E3,-7.5143438E3,-2.592431E3,3.0063086E3,9.58252E3,-8.721186E2,-6.291704E2,-3.7327322E3,-1.1170876E3,1.6117411E3,4.064603E3,7.363697E2,1.1086556E3,-4.2722412E2,-2.787906E2,-1.6737482E2,-3.5953915E1,9.401911E1,2.1350845E2,3.4499255E2,4.6109537E2],"categories":[],"categories_nodes":[],"categories_segments":[],"categories_sizes":[],"default_left":[0,0,0,0,0,0,0,0,0,0,0,0,0,0,0,0,0,0,0,0,0,0,0],"id":10,"left_children":[1,3,5,7,9,11,13,-1,-1,15,17,19,21,-1,-1,-1,-1,-1,-1,-1,-1,-1,-1],"loss_changes":[2.3733787E10,2.9821696E9,4.088794E9,1.9864269E8,5.1318413E8,3.381527E8,3.7400986E8,0E0,0E0,6.4873216E7,5.699048E7,3.3238752E7,1.318528E7,0E0,0E0,0E0,0E0,0E0,0E0,0E0,0E0,0E0,0E0],"parents":[2147483647,0,0,1,1,2,2,3,3,4,4,5,5,6,6,9,9,10,10,11,11,12,12],"right_children":[2,4,6,8,10,12,14,-1,-1,16,18,20,22,-1,-1,-1,-1,-1,-1,-1,-1,-1,-1],"split_conditions":[3.9287876E-2,-8.438095E-1,9.673229E-1,-1.3305494E0,-3.6078995E-1,4.8414162E-1,1.5161811E0,-8.721186E2,-6.291704E2,-5.9009296E-1,-1.9837715E-1,2.5927997E-1,6.765296E-1,7.363697E2,1.1086556E3,-4.2722412E2,-2.787906E2,-1.6737482E2,-3.5953915E1,9.401911E1,2.1350845E2,3.4499255E2,4.6109537E2],"split_indices":[86,84,86,86,86,84,86,0,0,84,84,84,86,0,0,0,0,0,0,0,0,0,0],"split_type":[0,0,0,0,0,0,0,0,0,0,0,0,0,0,0,0,0,0,0,0,0,0,0],"sum_hessian":[9.1E2,5.15E2,3.95E2,2.07E2,3.08E2,2.36E2,1.59E2,9.8E1,1.09E2,1.72E2,1.36E2,1.04E2,1.32E2,6.9E1,9E1,1.05E2,6.7E1,7.7E1,5.9E1,4.8E1,5.6E1,6.9E1,6.3E1],"tree_param":{"num_deleted":"0","num_feature":"116","num_nodes":"23","size_leaf_vector":"1"}},{"base_weights":[5.7178394E1,-3.9652522E3,5.27044E3,-6.9434565E3,-2.4371416E3,3.242771E3,9.769652E3,-8.309708E2,-5.90104E2,-3.59121E3,-1.2294537E3,1.7981075E3,4.556645E3,8.4806805E2,1.2342205E3,-4.0277908E2,-2.7838364E2,-1.7301219E2,-4.3323994E1,1.3457164E2,2.6640475E2,3.781617E2,5.5507294E2],"categories":[],"categories_nodes":[],"categories_segments":[],"categories_sizes":[],"default_left":[0,0,0,0,0,0,0,0,0,0,0,0,0,0,0,0,0,0,0,0,0,0,0],"id":11,"left_children":[1,3,5,7,9,11,13,-1,-1,15,17,19,21,-1,-1,-1,-1,-1,-1,-1,-1,-1,-1],"loss_changes":[1.983746E10,2.3964022E9,3.695278E9,1.5828378E8,4.8734605E8,5.2836915E8,2.1178163E8,0E0,0E0,4.1373184E7,6.905976E7,4.767357E7,7.281357E7,0E0,0E0,0E0,0E0,0E0,0E0,0E0,0E0,0E0,0E0],"parents":[2147483647,0,0,1,1,2,2,3,3,4,4,5,5,6,6,9,9,10,10,11,11,12,12],"right_children":[2,4,6,8,10,12,14,-1,-1,16,18,20,22,-1,-1,-1,-1,-1,-1,-1,-1,-1,-1],"split_conditions":[9.036809E-2,-8.85353E-1,1.324482E0,-1.3829832E0,-4.0132725E-1,5.812499E-1,1.9819502E0,-8.309708E2,-5.90104E2,-6.392858E-1,-2.2245453E-1,4.1160142E-1,8.865034E-1,8.4806805E2,1.2342205E3,-4.0277908E2,-2.7838364E2,-1.7301219E2,-4.3323994E1,1.3457164E2,2.6640475E2,3.781617E2,5.5507294E2],"split_indices":[1,1,2,2,84,2,86,0,0,1,1,1,2,0,0,0,0,0,0,0,0,0,0],"split_type":[0,0,0,0,0,0,0,0,0,0,0,0,0,0,0,0,0,0,0,0,0,0,0],"sum_hessian":[9.42E2,5.32E2,4.1E2,1.78E2,3.54E2,2.85E2,1.25E2,7.1E1,1.07E2,1.79E2,1.75E2,1.38E2,1.47E2,8.9E1,3.6E1,1.11E2,6.8E1,1.06E2,6.9E1,9.4E1,4.4E1,8.8E1,5.9E1],"tree_param":{"num_deleted":"0","num_feature":"116","num_nodes":"23","size_leaf_vector":"1"}},{"base_weights":[1.178913E2,-3.5431917E3,4.829593E3,-5.666786E3,-1.7660773E3,2.8577903E3,8.94158E3,-6.961076E2,-4.485303E3,-2.5810981E3,-5.6196045E2,1.8564653E3,4.269321E3,7.6131287E2,1.1192045E3,-4.9632715E2,-3.8619702E2,-3.0898398E2,-1.9458165E2,-9.0232346E1,2.6343695E1,1.1814465E2,2.3289738E2,3.5536276E2,5.0289468E2],"categories":[],"categories_nodes":[],"categories_segments":[],"categories_sizes":[],"default_left":[0,0,0,0,0,0,0,0,0,0,0,0,0,0,0,0,0,0,0,0,0,0,0,0,0],"id":12,"left_children":[1,3,5,7,9,11,13,-1,15,17,19,21,23,-1,-1,-1,-1,-1,-1,-1,-1,-1,-1,-1,-1],"loss_changes":[1.5938661E10,1.9423954E9,3.224536E9,2.984402E8,2.777735E8,3.7424614E8,2.1823795E8,0E0,9.6512E4,4.2918016E7,3.3625772E7,4.7123584E7,2.5690752E7,0E0,0E0,0E0,0E0,0E0,0E0,0E0,0E0,0E0,0E0,0E0,0E0],"parents":[2147483647,0,0,1,1,2,2,3,3,4,4,5,5,6,6,8,8,9,9,10,10,11,11,12,12],"right_children":[2,4,6,8,10,12,14,-1,16,18,20,22,24,-1,-1,-1,-1,-1,-1,-1,-1,-1,-1,-1,-1],"split_conditions":[1.4829934E-1,-7.700755E-1,1.3140517E0,-1.2857109E0,-3.1904042E-1,6.350156E-1,1.9699824E0,-6.961076E2,-9.397717E-1,-5.013596E-1,-3.7012283E-2,3.680095E-1,8.985605E-1,7.6131287E2,1.1192045E3,-4.9632715E2,-3.8619702E2,-3.0898398E2,-1.9458165E2,-9.0232346E1,2.6343695E1,1.1814465E2,2.3289738E2,3.5536276E2,5.0289468E2],"split_indices":[1,1,1,2,1,2,2,0,2,2,1,1,2,0,0,0,0,0,0,0,0,0,0,0,0],"split_type":[0,0,0,0,0,0,0,0,0,0,0,0,0,0,0,0,0,0,0,0,0,0,0,0,0],"sum_hessian":[9.2E2,5.18E2,4.02E2,2.34E2,2.84E2,2.74E2,1.28E2,1.07E2,1.27E2,1.68E2,1.16E2,1.63E2,1.11E2,8.6E1,4.2E1,6.4E1,6.3E1,8.9E1,7.9E1,8.2E1,3.4E1,7E1,9.3E1,6.3E1,4.8E1],"tree_param":{"num_deleted":"0","num_feature":"116","num_nodes":"25","size_leaf_vector":"1"}},{"base_weights":[8.922622E1,-2.992175E3,4.8563433E3,-5.0935244E3,-1.2602814E3,3.0853162E3,8.056962E3,-6.0613057E3,-3.784201E2,-2.1599202E3,-1.7816887E2,2.1617144E3,4.1685337E3,6.8677826E2,9.8523517E2,-6.7936444E2,-5.235683E2,-2.6502502E2,-1.6972498E2,-6.880078E1,6.29368E1,1.4629883E2,2.505424E2,3.4109595E2,4.7000977E2],"categories":[],"categories_nodes":[],"categories_segments":[],"categories_sizes":[],"default_left":[0,0,0,0,0,0,0,0,0,0,0,0,0,0,0,0,0,0,0,0,0,0,0,0,0],"id":13,"left_children":[1,3,5,7,9,11,13,15,-1,17,19,21,23,-1,-1,-1,-1,-1,-1,-1,-1,-1,-1,-1,-1],"loss_changes":[1.3469864E10,2.0142582E9,1.9909002E9,2.7217664E8,2.9907126E8,2.1708544E8,1.358208E8,1.411328E7,0E0,2.9115968E7,5.9329372E7,2.41296E7,1.0621696E7,0E0,0E0,0E0,0E0,0E0,0E0,0E0,0E0,0E0,0E0,0E0,0E0],"parents":[2147483647,0,0,1,1,2,2,3,3,4,4,5,5,6,6,7,7,9,9,10,10,11,11,12,12],"right_children":[2,4,6,8,10,12,14,16,-1,18,20,22,24,-1,-1,-1,-1,-1,-1,-1,-1,-1,-1,-1,-1],"split_conditions":[2.5494078E-1,-7.3488486E-1,1.324482E0,-1.0358635E0,-2.692229E-1,7.218846E-1,1.9699824E0,-1.4148638E0,-3.784201E2,-4.9612293E-1,-4.3798643E-3,4.2925927E-1,8.985605E-1,6.8677826E2,9.8523517E2,-6.7936444E2,-5.235683E2,-2.6502502E2,-1.6972498E2,-6.880078E1,6.29368E1,1.4629883E2,2.505424E2,3.4109595E2,4.7000977E2],"split_indices":[2,2,2,2,2,91,2,2,0,86,2,2,2,0,0,0,0,0,0,0,0,0,0,0,0],"split_type":[0,0,0,0,0,0,0,0,0,0,0,0,0,0,0,0,0,0,0,0,0,0,0,0,0],"sum_hessian":[9.13E2,5.55E2,3.58E2,2.49E2,3.06E2,2.33E2,1.25E2,1.39E2,1.1E2,1.66E2,1.4E2,1.29E2,1.04E2,8.1E1,4.4E1,6.6E1,7.3E1,7.6E1,9E1,8.6E1,5.4E1,4.6E1,8.3E1,4.9E1,5.5E1],"tree_param":{"num_deleted":"0","num_feature":"116","num_nodes":"25","size_leaf_vector":"1"}},{"base_weights":[1.1132792E2,-2.6081675E3,4.36328E3,-4.193446E3,-8.214589E2,2.566978E3,6.904636E3,-5.3377295E3,-3.169136E3,-1.4559321E3,9.584541E1,1.6587465E3,3.3172512E3,5.9715173E2,8.9802765E2,-5.9863745E2,-4.5007037E2,-3.4651218E2,-2.7046695E2,-1.7854227E2,-9.447771E1,-3.696359E1,5.836388E1,1.18082146E2,1.9694676E2,2.7535422E2,3.6627914E2],"categories":[],"categories_nodes":[],"categories_segments":[],"categories_sizes":[],"default_left":[0,0,0,0,0,0,0,0,0,0,0,0,0,0,0,0,0,0,0,0,0,0,0,0,0,0,0],"id":14,"left_children":[1,3,5,7,9,11,13,15,17,19,21,23,25,-1,-1,-1,-1,-1,-1,-1,-1,-1,-1,-1,-1,-1,-1],"loss_changes":[1.0464298E10,1.5566118E9,1.5760113E9,3.084201E8,1.5276454E8,1.3209306E8,1.735854E8,1.9408896E7,3.113984E6,2.2731296E7,2.5180884E7,1.0050144E7,1.83872E6,0E0,0E0,0E0,0E0,0E0,0E0,0E0,0E0,0E0,0E0,0E0,0E0,0E0,0E0],"parents":[2147483647,0,0,1,1,2,2,3,3,4,4,5,5,6,6,7,7,8,8,9,9,10,10,11,11,12,12],"right_children":[2,4,6,8,10,12,14,16,18,20,22,24,26,-1,-1,-1,-1,-1,-1,-1,-1,-1,-1,-1,-1,-1,-1],"split_conditions":[2.6556727E-1,-6.060813E-1,1.1053603E0,-1.0099394E0,-2.0561099E-1,5.8674693E-1,1.9545053E0,-1.4023775E0,-7.9660964E-1,-3.442923E-1,5.1741436E-2,4.1160142E-1,8.2752466E-1,5.9715173E2,8.9802765E2,-5.9863745E2,-4.5007037E2,-3.4651218E2,-2.7046695E2,-1.7854227E2,-9.447771E1,-3.696359E1,5.836388E1,1.18082146E2,1.9694676E2,2.7535422E2,3.6627914E2],"split_indices":[1,87,1,1,1,1,1,87,87,1,1,1,1,0,0,0,0,0,0,0,0,0,0,0,0,0,0],"split_type":[0,0,0,0,0,0,0,0,0,0,0,0,0,0,0,0,0,0,0,0,0,0,0,0,0,0,0],"sum_hessian":[9.01E2,5.5E2,3.51E2,2.9E2,2.6E2,2.08E2,1.43E2,1.33E2,1.57E2,1.53E2,1.07E2,9.7E1,1.11E2,1.04E2,3.9E1,6.8E1,6.5E1,8.8E1,6.9E1,9E1,6.3E1,5.5E1,5.2E1,4.2E1,5.5E1,4.9E1,6.2E1],"tree_param":{"num_deleted":"0","num_feature":"116","num_nodes":"27","size_leaf_vector":"1"}},{"base_weights":[6.7330376E1,-2.5755652E3,3.6653894E3,-4.47467E3,-1.3634344E3,2.1324185E3,6.5294097E3,-5.4785724E2,-3.7639177E3,-1.9978921E3,-4.6554782E2,1.0871884E3,2.875441E3,5.6652295E2,8.366094E2,-3.973266E2,-2.859271E2,-2.4141455E2,-1.5264319E2,-7.694749E1,1.3637474E1,7.6683586E1,1.3796541E2,2.2905013E2,3.5048383E2],"categories":[],"categories_nodes":[],"categories_segments":[],"categories_sizes":[],"default_left":[0,0,0,0,0,0,0,0,0,0,0,0,0,0,0,0,0,0,0,0,0,0,0,0,0],"id":15,"left_children":[1,3,5,7,9,11,13,-1,15,17,19,21,23,-1,-1,-1,-1,-1,-1,-1,-1,-1,-1,-1,-1],"loss_changes":[8.757923E9,1.2101402E9,1.6844314E9,1.0574362E8,1.8442195E8,1.9334118E8,1.1948288E8,0E0,1.330176E6,3.0112704E7,2.5455732E7,8.189992E6,3.879949E7,0E0,0E0,0E0,0E0,0E0,0E0,0E0,0E0,0E0,0E0,0E0,0E0],"parents":[2147483647,0,0,1,1,2,2,3,3,4,4,5,5,6,6,8,8,9,9,10,10,11,11,12,12],"right_children":[2,4,6,8,10,12,14,-1,16,18,20,22,24,-1,-1,-1,-1,-1,-1,-1,-1,-1,-1,-1,-1],"split_conditions":[1.0756975E-1,-8.2446563E-1,1.3606755E0,-1.3659748E0,-3.275925E-1,5.3093046E-1,1.9819502E0,-5.4785724E2,-9.510571E-1,-5.716506E-1,-1.4010356E-1,3.0457762E-1,8.2937765E-1,5.6652295E2,8.366094E2,-3.973266E2,-2.859271E2,-2.4141455E2,-1.5264319E2,-7.694749E1,1.3637474E1,7.6683586E1,1.3796541E2,2.2905013E2,3.5048383E2],"split_indices":[84,86,84,87,84,84,86,0,86,87,84,94,87,0,0,0,0,0,0,0,0,0,0,0,0],"split_type":[0,0,0,0,0,0,0,0,0,0,0,0,0,0,0,0,0,0,0,0,0,0,0,0,0],"sum_hessian":[9.17E2,5.29E2,3.88E2,2.04E2,3.25E2,2.55E2,1.33E2,7.9E1,1.25E2,1.89E2,1.36E2,1.08E2,1.47E2,9.6E1,3.7E1,9.6E1,2.9E1,9.6E1,9.3E1,9E1,4.6E1,5.5E1,5.3E1,8.1E1,6.6E1],"tree_param":{"num_deleted":"0","num_feature":"116","num_nodes":"25","size_leaf_vector":"1"}},{"base_weights":[-2.8202332E1,-2.2402625E3,3.2179082E3,-3.5810227E3,-9.5090485E2,2.0797217E3,5.849659E3,-4.6611133E3,-2.8764695E3,-1.4968889E3,-2.4868365E2,1.2709176E3,2.7443015E3,5.259284E2,8.123632E2,-5.960542E2,-4.1709985E2,-3.3430038E2,-2.5063611E2,-1.7480493E2,-1.1204431E2,-5.732381E1,2.3835264E1,8.6592636E1,1.5611028E2,2.2942227E2,3.2437805E2],"categories":[],"categories_nodes":[],"categories_segments":[],"categories_sizes":[],"default_left":[0,0,0,0,0,0,0,0,0,0,0,0,0,0,0,0,0,0,0,0,0,0,0,0,0,0,0],"id":16,"left_children":[1,3,5,7,9,11,13,15,17,19,21,23,25,-1,-1,-1,-1,-1,-1,-1,-1,-1,-1,-1,-1,-1,-1],"loss_changes":[6.520034E9,9.266975E8,1.077984E9,1.7408358E8,1.0584098E8,1.3277786E8,6.2224384E7,1.459968E7,1.1732224E7,1.0832032E7,1.9873952E7,1.1516368E7,1.6812992E7,0E0,0E0,0E0,0E0,0E0,0E0,0E0,0E0,0E0,0E0,0E0,0E0,0E0,0E0],"parents":[2147483647,0,0,1,1,2,2,3,3,4,4,5,5,6,6,7,7,8,8,9,9,10,10,11,11,12,12],"right_children":[2,4,6,8,10,12,14,16,18,20,22,24,26,-1,-1,-1,-1,-1,-1,-1,-1,-1,-1,-1,-1,-1,-1],"split_conditions":[2.05906E-1,-7.04077E-1,1.3657666E0,-1.282274E0,-2.7839243E-1,5.8674693E-1,2.074408E0,-1.4603878E0,-9.4860643E-1,-3.934735E-1,-7.4064285E-2,3.816197E-1,8.7946254E-1,5.259284E2,8.123632E2,-5.960542E2,-4.1709985E2,-3.3430038E2,-2.5063611E2,-1.7480493E2,-1.1204431E2,-5.732381E1,2.3835264E1,8.6592636E1,1.5611028E2,2.2942227E2,3.2437805E2],"split_indices":[11,2,87,86,1,1,1,2,2,2,2,87,1,0,0,0,0,0,0,0,0,0,0,0,0,0,0],"split_type":[0,0,0,0,0,0,0,0,0,0,0,0,0,0,0,0,0,0,0,0,0,0,0,0,0,0,0],"sum_hessian":[9.04E2,5.38E2,3.66E2,2.62E2,2.76E2,2.58E2,1.08E2,9.9E1,1.63E2,1.54E2,1.22E2,1.19E2,1.39E2,9.1E1,1.7E1,2.1E1,7.8E1,6.5E1,9.8E1,8.8E1,6.6E1,7.3E1,4.9E1,5.3E1,6.6E1,7.9E1,6E1],"tree_param":{"num_deleted":"0","num_feature":"116","num_nodes":"27","size_leaf_vector":"1"}},{"base_weights":[3.4187393E1,-2.2063672E3,2.6980327E3,-3.7090217E3,-1.2993174E3,1.6124608E3,5.3669946E3,-4.6636182E2,-3.1565033E2,-1.8451891E3,-7.190708E2,1.0496698E3,2.4627026E3,4.5306662E2,6.998179E2,-2.0575108E2,-1.4227342E2,-9.337365E1,-4.0130077E1,7.4275764E1,1.5172113E2,1.8689558E2,2.7901242E2],"categories":[],"categories_nodes":[],"categories_segments":[],"categories_sizes":[],"default_left":[0,0,0,0,0,0,0,0,0,0,0,0,0,0,0,0,0,0,0,0,0,0,0],"id":17,"left_children":[1,3,5,7,9,11,13,-1,-1,15,17,19,21,-1,-1,-1,-1,-1,-1,-1,-1,-1,-1],"loss_changes":[5.4611374E9,6.677637E8,1.1937836E9,6.866022E7,9.648579E7,1.383822E8,1.0029056E8,0E0,0E0,8.496448E6,9.823664E6,2.4148848E7,1.2510144E7,0E0,0E0,0E0,0E0,0E0,0E0,0E0,0E0,0E0,0E0],"parents":[2147483647,0,0,1,1,2,2,3,3,4,4,5,5,6,6,9,9,10,10,11,11,12,12],"right_children":[2,4,6,8,10,12,14,-1,-1,16,18,20,22,-1,-1,-1,-1,-1,-1,-1,-1,-1,-1],"split_conditions":[-4.3798643E-3,-8.694776E-1,1.3528062E0,-1.4077116E0,-4.192899E-1,6.0892314E-1,2.0030503E0,-4.6636182E2,-3.1565033E2,-6.0357624E-1,-2.3797774E-1,4.407274E-1,8.2752466E-1,4.5306662E2,6.998179E2,-2.0575108E2,-1.4227342E2,-9.337365E1,-4.0130077E1,7.4275764E1,1.5172113E2,1.8689558E2,2.7901242E2],"split_indices":[2,2,1,1,1,1,2,0,0,1,1,1,1,0,0,0,0,0,0,0,0,0,0],"split_type":[0,0,0,0,0,0,0,0,0,0,0,0,0,0,0,0,0,0,0,0,0,0,0],"sum_hessian":[9.11E2,4.95E2,4.16E2,1.84E2,3.11E2,2.98E2,1.18E2,6.2E1,1.22E2,1.58E2,1.53E2,1.82E2,1.16E2,8.3E1,3.5E1,1E2,5.8E1,8.9E1,6.4E1,1.13E2,6.9E1,4.6E1,7E1],"tree_param":{"num_deleted":"0","num_feature":"116","num_nodes":"23","size_leaf_vector":"1"}},{"base_weights":[8.994614E1,-1.9356875E3,2.6054524E3,-3.3574417E3,-1.1749084E3,1.6522554E3,5.2314497E3,-4.7189087E2,-3.047391E2,-1.6672418E3,-5.706802E2,9.896729E2,2.3895535E3,4.4912106E2,6.409139E2,-2.0122989E2,-1.3268893E2,-7.933855E1,-2.447582E1,5.573594E1,1.2578875E2,1.9811658E2,2.9290366E2],"categories":[],"categories_nodes":[],"categories_segments":[],"categories_sizes":[],"default_left":[0,0,0,0,0,0,0,0,0,0,0,0,0,0,0,0,0,0,0,0,0,0,0],"id":18,"left_children":[1,3,5,7,9,11,13,-1,-1,15,17,19,21,-1,-1,-1,-1,-1,-1,-1,-1,-1,-1],"loss_changes":[4.672464E9,5.415839E8,1.0064768E9,4.553229E7,9.745574E7,1.4329165E8,3.6580864E7,0E0,0E0,1.6151168E7,1.0716956E7,1.749792E7,1.9678912E7,0E0,0E0,0E0,0E0,0E0,0E0,0E0,0E0,0E0,0E0],"parents":[2147483647,0,0,1,1,2,2,3,3,4,4,5,5,6,6,9,9,10,10,11,11,12,12],"right_children":[2,4,6,8,10,12,14,-1,-1,16,18,20,22,-1,-1,-1,-1,-1,-1,-1,-1,-1,-1],"split_conditions":[-4.3798643E-3,-9.2212754E-1,1.4642333E0,-1.4497285E0,-3.6434674E-1,6.350156E-1,2.040358E0,-4.7189087E2,-3.047391E2,-6.9200754E-1,-1.9837715E-1,3.223674E-1,9.512227E-1,4.4912106E2,6.409139E2,-2.0122989E2,-1.3268893E2,-7.933855E1,-2.447582E1,5.573594E1,1.2578875E2,1.9811658E2,2.9290366E2],"split_indices":[2,2,2,2,2,2,84,0,0,2,84,95,2,0,0,0,0,0,0,0,0,0,0],"split_type":[0,0,0,0,0,0,0,0,0,0,0,0,0,0,0,0,0,0,0,0,0,0,0],"sum_hessian":[9.13E2,5.06E2,4.07E2,1.74E2,3.32E2,3.01E2,1.06E2,2.7E1,1.47E2,1.81E2,1.51E2,1.61E2,1.4E2,7.1E1,3.5E1,8.5E1,9.6E1,8.8E1,6.3E1,6.4E1,9.7E1,8.5E1,5.5E1],"tree_param":{"num_deleted":"0","num_feature":"116","num_nodes":"23","size_leaf_vector":"1"}},{"base_weights":[-6.547537E1,-1.6805317E3,2.2639502E3,-2.707505E3,-7.879223E2,1.4483892E3,4.3177E3,-3.532556E3,-2.17863E3,-1.1691544E3,-2.4768947E2,8.1817535E2,1.9329309E3,3.8317062E2,6.1652783E2,-4.7239474E2,-3.115875E2,-2.476844E2,-1.8783438E2,-1.3851411E2,-9.2904945E1,-4.391182E1,4.7288213E0,3.6676342E1,9.823819E1,1.6331041E2,2.5270006E2],"categories":[],"categories_nodes":[],"categories_segments":[],"categories_sizes":[],"default_left":[0,0,0,0,0,0,0,0,0,0,0,0,0,0,0,0,0,0,0,0,0,0,0,0,0,0,0],"id":19,"left_children":[1,3,5,7,9,11,13,15,17,19,21,23,25,-1,-1,-1,-1,-1,-1,-1,-1,-1,-1,-1,-1,-1,-1],"loss_changes":[3.491363E9,4.9807706E8,6.2397645E8,9.543962E7,6.038309E7,8.081216E7,4.8828544E7,1.8218112E7,5.022784E6,6.397728E6,7.099969E6,8.396608E6,1.9176064E7,0E0,0E0,0E0,0E0,0E0,0E0,0E0,0E0,0E0,0E0,0E0,0E0,0E0,0E0],"parents":[2147483647,0,0,1,1,2,2,3,3,4,4,5,5,6,6,7,7,8,8,9,9,10,10,11,11,12,12],"right_children":[2,4,6,8,10,12,14,16,18,20,22,24,26,-1,-1,-1,-1,-1,-1,-1,-1,-1,-1,-1,-1,-1,-1],"split_conditions":[1.0827055E-1,-7.555542E-1,1.3874649E0,-1.303793E0,-2.75858E-1,5.812499E-1,2.1539183E0,-1.51988E0,-9.749483E-1,-5.013596E-1,-1.3948819E-1,2.3807596E-1,9.512227E-1,3.8317062E2,6.1652783E2,-4.7239474E2,-3.115875E2,-2.476844E2,-1.8783438E2,-1.3851411E2,-9.2904945E1,-4.391182E1,4.7288213E0,3.6676342E1,9.823819E1,1.6331041E2,2.5270006E2],"split_indices":[2,1,1,2,2,2,2,0,1,2,87,1,2,0,0,0,0,0,0,0,0,0,0,0,0,0,0],"split_type":[0,0,0,0,0,0,0,0,0,0,0,0,0,0,0,0,0,0,0,0,0,0,0,0,0,0,0],"sum_hessian":[9.24E2,5.46E2,3.78E2,2.52E2,2.94E2,2.73E2,1.05E2,9.4E1,1.58E2,1.71E2,1.23E2,1.21E2,1.52E2,8.8E1,1.7E1,1.9E1,7.5E1,7.2E1,8.6E1,8.5E1,8.6E1,7.4E1,4.9E1,3.4E1,8.7E1,1.06E2,4.6E1],"tree_param":{"num_deleted":"0","num_feature":"116","num_nodes":"27","size_leaf_vector":"1"}},{"base_weights":[-2.1366389E0,-1.564929E3,2.2502537E3,-2.9245483E3,-9.548631E2,1.1429121E3,3.567199E3,-4.3135245E2,-2.6485376E2,-1.5433578E3,-5.068474E2,8.2155536E2,1.5407192E3,2.9035715E3,4.7622824E2,-1.6759454E2,-1.2172373E2,-7.693798E1,-1.6163986E1,4.912619E1,9.5534386E1,8.648539E1,1.6708513E2,2.479724E2,3.236175E2],"categories":[],"categories_nodes":[],"categories_segments":[],"categories_sizes":[],"default_left":[0,0,0,0,0,0,0,0,0,0,0,0,0,0,0,0,0,0,0,0,0,0,0,0,0],"id":20,"left_children":[1,3,5,7,9,11,13,-1,-1,15,17,19,21,23,-1,-1,-1,-1,-1,-1,-1,-1,-1,-1,-1],"loss_changes":[3.2912197E9,4.5227507E8,5.503775E8,4.2323456E7,9.967875E7,2.4441984E7,1.1034163E8,0E0,0E0,3.054176E6,1.9780008E7,4.408136E6,5.201216E6,4.43712E5,0E0,0E0,0E0,0E0,0E0,0E0,0E0,0E0,0E0,0E0,0E0],"parents":[2147483647,0,0,1,1,2,2,3,3,4,4,5,5,6,6,9,9,10,10,11,11,12,12,13,13],"right_children":[2,4,6,8,10,12,14,-1,-1,16,18,20,22,24,-1,-1,-1,-1,-1,-1,-1,-1,-1,-1,-1],"split_conditions":[1.9505434E-1,-9.642299E-1,9.564643E-1,-1.51988E0,-4.9612293E-1,5.921987E-1,1.771066E0,-4.3135245E2,-2.6485376E2,-6.751245E-1,-2.2228973E-1,3.0267724E-1,-6.990951E-1,1.4324386E0,4.7622824E2,-1.6759454E2,-1.2172373E2,-7.693798E1,-1.6163986E1,4.912619E1,9.5534386E1,8.648539E1,1.6708513E2,2.479724E2,3.236175E2],"split_indices":[84,86,84,0,86,87,86,0,0,84,87,92,4,84,0,0,0,0,0,0,0,0,0,0,0],"split_type":[0,0,0,0,0,0,0,0,0,0,0,0,0,0,0,0,0,0,0,0,0,0,0,0,0],"sum_hessian":[9.31E2,5.5E2,3.81E2,1.68E2,3.82E2,2.09E2,1.72E2,2.3E1,1.45E2,1.63E2,2.19E2,1.19E2,9E1,1.15E2,5.7E1,1.1E2,5.3E1,1.23E2,9.6E1,3.7E1,8.2E1,1.7E1,7.3E1,5.8E1,5.7E1],"tree_param":{"num_deleted":"0","num_feature":"116","num_nodes":"25","size_leaf_vector":"1"}},{"base_weights":[4.8380486E1,-1.2846483E3,2.0583025E3,-2.199854E3,-5.5418915E2,1.1161876E3,3.174683E3,-2.938894E3,-1.7648024E3,-9.7870294E2,-1.00799805E2,6.816397E2,1.3189637E3,2.505304E2,3.926773E3,-3.8759842E2,-2.6315222E2,-2.0170332E2,-1.5417934E2,-1.1983462E2,-8.141634E1,-2.9384298E1,2.7471853E1,9.0848854E1,4.302049E1,1.0591924E2,1.4737013E2,3.411353E2,5.0545792E2],"categories":[],"categories_nodes":[],"categories_segments":[],"categories_sizes":[],"default_left":[0,0,0,0,0,0,0,0,0,0,0,0,0,0,0,0,0,0,0,0,0,0,0,0,0,0,0,0,0],"id":21,"left_children":[1,3,5,7,9,11,13,15,17,19,21,23,25,-1,27,-1,-1,-1,-1,-1,-1,-1,-1,-1,-1,-1,-1,-1,-1],"loss_changes":[2.5264947E9,3.766124E8,3.8837363E8,7.032806E7,6.1008064E7,1.6441664E7,6.641088E7,5.523008E6,2.948704E6,3.975456E6,1.1470084E7,3.210832E6,2.465184E6,0E0,1.0272896E7,0E0,0E0,0E0,0E0,0E0,0E0,0E0,0E0,0E0,0E0,0E0,0E0,0E0,0E0],"parents":[2147483647,0,0,1,1,2,2,3,3,4,4,5,5,6,6,7,7,8,8,9,9,10,10,11,11,12,12,14,14],"right_children":[2,4,6,8,10,12,14,16,18,20,22,24,26,-1,28,-1,-1,-1,-1,-1,-1,-1,-1,-1,-1,-1,-1,-1,-1],"split_conditions":[2.2440141E-1,-7.3488486E-1,9.521105E-1,-1.3134115E0,-2.75858E-1,4.8414162E-1,1.6827173E0,-1.51988E0,-9.708035E-1,-5.758699E-1,-4.3798643E-3,3.4441003E-1,6.350156E-1,2.505304E2,2.1158626E0,-3.8759842E2,-2.6315222E2,-2.0170332E2,-1.5417934E2,-1.1983462E2,-8.141634E1,-2.9384298E1,2.7471853E1,9.0848854E1,4.302049E1,1.0591924E2,1.4737013E2,3.411353E2,5.0545792E2],"split_indices":[84,2,86,2,2,84,2,0,87,2,2,31,2,0,2,0,0,0,0,0,0,0,0,0,0,0,0,0,0],"split_type":[0,0,0,0,0,0,0,0,0,0,0,0,0,0,0,0,0,0,0,0,0,0,0,0,0,0,0,0,0],"sum_hessian":[9.39E2,5.65E2,3.74E2,2.49E2,3.16E2,2.05E2,1.69E2,8.8E1,1.61E2,1.62E2,1.54E2,6.8E1,1.37E2,9.4E1,7.5E1,1.6E1,7.2E1,6.8E1,9.3E1,6.4E1,9.8E1,1.02E2,5.2E1,3.3E1,3.5E1,5.7E1,8E1,5.7E1,1.8E1],"tree_param":{"num_deleted":"0","num_feature":"116","num_nodes":"29","size_leaf_vector":"1"}},{"base_weights":[-2.888734E1,-1.3324204E3,1.6958325E3,-2.257612E3,-8.1285846E2,8.6359326E2,2.8533406E3,-3.4867697E2,-2.0897246E3,-1.138166E3,-3.8506158E2,4.7694714E2,1.1745576E3,2.1578194E2,3.439524E2,-2.2427144E2,-1.6680641E2,-1.3228587E2,-9.434369E1,-5.2456886E1,-1.899236E1,6.795613E1,5.084721E0,1.00339005E2,1.3559187E2],"categories":[],"categories_nodes":[],"categories_segments":[],"categories_sizes":[],"default_left":[0,0,0,0,0,0,0,0,0,0,0,0,0,0,0,0,0,0,0,0,0,0,0,0,0],"id":22,"left_children":[1,3,5,7,9,11,13,-1,15,17,19,21,23,-1,-1,-1,-1,-1,-1,-1,-1,-1,-1,-1,-1],"loss_changes":[2.0211809E9,2.42445E8,3.6787763E8,2.3190528E7,4.5187136E7,2.6292608E7,5.0795904E7,0E0,3.22624E6,4.229184E6,3.775254E6,8.995876E6,1.15912E6,0E0,0E0,0E0,0E0,0E0,0E0,0E0,0E0,0E0,0E0,0E0,0E0],"parents":[2147483647,0,0,1,1,2,2,3,3,4,4,5,5,6,6,8,8,9,9,10,10,11,11,12,12],"right_children":[2,4,6,8,10,12,14,-1,16,18,20,22,24,-1,-1,-1,-1,-1,-1,-1,-1,-1,-1,-1,-1],"split_conditions":[7.257513E-2,-9.617864E-1,9.816365E-1,-1.51988E0,-3.6434674E-1,5.2353334E-1,1.6022891E0,-3.4867697E2,-1.2367086E0,-6.9200754E-1,-1.9930756E-1,4.0415353E-1,2.7227864E-1,2.1578194E2,3.439524E2,-2.2427144E2,-1.6680641E2,-1.3228587E2,-9.434369E1,-5.2456886E1,-1.899236E1,6.795613E1,5.084721E0,1.00339005E2,1.3559187E2],"split_indices":[1,87,1,0,2,2,1,0,29,2,2,26,4,0,0,0,0,0,0,0,0,0,0,0,0],"split_type":[0,0,0,0,0,0,0,0,0,0,0,0,0,0,0,0,0,0,0,0,0,0,0,0,0],"sum_hessian":[8.95E2,5.1E2,3.85E2,1.81E2,3.29E2,2.26E2,1.59E2,1.7E1,1.64E2,1.85E2,1.44E2,1.03E2,1.23E2,7.7E1,8.2E1,1.14E2,5E1,8.9E1,9.6E1,8.2E1,6.2E1,6.9E1,3.4E1,7E1,5.3E1],"tree_param":{"num_deleted":"0","num_feature":"116","num_nodes":"25","size_leaf_vector":"1"}},{"base_weights":[-2.1400677E1,-1.1905076E3,1.4017191E3,-2.1324883E3,-7.748545E2,9.215223E2,2.9981821E3,-3.294457E2,-1.9416008E3,-1.1644591E3,-4.2405142E2,5.445041E2,1.3937476E3,2.4197715E3,3.498235E2,-2.0875981E2,-1.570089E2,-1.3064578E2,-9.283322E1,-6.687309E1,-2.810588E1,3.110768E1,8.401814E1,4.597936E1,1.4800684E2,2.605907E2,1.5555624E2],"categories":[],"categories_nodes":[],"categories_segments":[],"categories_sizes":[],"default_left":[0,0,0,0,0,0,0,0,0,0,0,0,0,0,0,0,0,0,0,0,0,0,0,0,0,0,0],"id":23,"left_children":[1,3,5,7,9,11,13,-1,15,17,19,21,23,25,-1,-1,-1,-1,-1,-1,-1,-1,-1,-1,-1,-1,-1],"loss_changes":[1.5456608E9,1.9637894E8,3.1568608E8,2.1586304E7,4.7805056E7,5.634419E7,1.0836224E7,0E0,9.29248E5,3.207104E6,6.306588E6,1.2176688E7,1.016736E7,9.6128E4,0E0,0E0,0E0,0E0,0E0,0E0,0E0,0E0,0E0,0E0,0E0,0E0,0E0],"parents":[2147483647,0,0,1,1,2,2,3,3,4,4,5,5,6,6,8,8,9,9,10,10,11,11,12,12,13,13],"right_children":[2,4,6,8,10,12,14,-1,16,18,20,22,24,26,-1,-1,-1,-1,-1,-1,-1,-1,-1,-1,-1,-1,-1],"split_conditions":[5.1741436E-2,-9.9081093E-1,1.4370794E0,-1.51988E0,-5.3627473E-1,6.0892314E-1,1.814188E0,-3.294457E2,-1.2908857E0,3.0451983E-1,-3.442923E-1,3.8157764E-1,-9.2130095E-1,1.7584417E0,3.498235E2,-2.0875981E2,-1.570089E2,-1.3064578E2,-9.283322E1,-6.687309E1,-2.810588E1,3.110768E1,8.401814E1,4.597936E1,1.4800684E2,2.605907E2,1.5555624E2],"split_indices":[1,1,2,0,2,1,2,0,1,4,1,86,4,25,0,0,0,0,0,0,0,0,0,0,0,0,0],"split_type":[0,0,0,0,0,0,0,0,0,0,0,0,0,0,0,0,0,0,0,0,0,0,0,0,0,0,0],"sum_hessian":[9.25E2,5.08E2,4.17E2,1.53E2,3.55E2,3.23E2,9.4E1,1.7E1,1.36E2,1.66E2,1.89E2,1.82E2,1.41E2,4.9E1,4.5E1,9.1E1,4.5E1,9.8E1,6.8E1,6.7E1,1.22E2,1.04E2,7.8E1,1.3E1,1.28E2,3.7E1,1.2E1],"tree_param":{"num_deleted":"0","num_feature":"116","num_nodes":"27","size_leaf_vector":"1"}},{"base_weights":[2.6532194E1,-8.9052264E2,1.6514259E3,-1.561244E3,-2.9387057E2,1.0579664E3,3.049019E3,-2.2080857E3,-1.2765427E3,-5.536992E2,6.2195576E1,8.287892E2,1.4703918E3,2.6092215E2,4.4813126E2,-2.89119E2,-1.9362848E2,-1.5596779E2,-1.1144045E2,-6.640081E1,-3.5248287E1,-5.6704945E1,1.641901E1,8.849775E1,1.1707162E0,1.02250854E2,1.6449345E2],"categories":[],"categories_nodes":[],"categories_segments":[],"categories_sizes":[],"default_left":[0,0,0,0,0,0,0,0,0,0,0,0,0,0,0,0,0,0,0,0,0,0,0,0,0,0,0],"id":24,"left_children":[1,3,5,7,9,11,13,15,17,19,21,23,25,-1,-1,-1,-1,-1,-1,-1,-1,-1,-1,-1,-1,-1,-1],"loss_changes":[1.3589475E9,2.3239142E8,2.664256E8,4.482112E7,2.884146E7,1.9679808E7,3.771597E7,3.842304E6,5.475392E6,3.527064E6,8.722047E6,7.095312E6,2.967984E6,0E0,0E0,0E0,0E0,0E0,0E0,0E0,0E0,0E0,0E0,0E0,0E0,0E0,0E0],"parents":[2147483647,0,0,1,1,2,2,3,3,4,4,5,5,6,6,7,7,8,8,9,9,10,10,11,11,12,12],"right_children":[2,4,6,8,10,12,14,16,18,20,22,24,26,-1,-1,-1,-1,-1,-1,-1,-1,-1,-1,-1,-1,-1,-1],"split_conditions":[3.4520233E-1,-6.301695E-1,1.4940116E0,-1.3429372E0,-2.0561099E-1,9.0778947E-1,2.1560593E0,-1.4579501E0,-9.5440996E-1,-3.442923E-1,-1.2985187E0,1.2387922E0,3.5823643E-1,2.6092215E2,4.4813126E2,-2.89119E2,-1.9362848E2,-1.5596779E2,-1.1144045E2,-6.640081E1,-3.5248287E1,-5.6704945E1,1.641901E1,8.849775E1,1.1707162E0,1.02250854E2,1.6449345E2],"split_indices":[1,1,91,1,1,86,86,1,113,1,4,99,97,0,0,0,0,0,0,0,0,0,0,0,0,0,0],"split_type":[0,0,0,0,0,0,0,0,0,0,0,0,0,0,0,0,0,0,0,0,0,0,0,0,0,0,0],"sum_hessian":[9.08E2,5.81E2,3.27E2,2.72E2,3.09E2,2.32E2,9.5E1,7.9E1,1.93E2,1.78E2,1.31E2,1.53E2,7.9E1,7.7E1,1.8E1,1.7E1,6.2E1,6.4E1,1.29E2,1.12E2,6.6E1,1.7E1,1.14E2,1.43E2,1E1,2.6E1,5.3E1],"tree_param":{"num_deleted":"0","num_feature":"116","num_nodes":"27","size_leaf_vector":"1"}},{"base_weights":[6.176047E1,-8.609387E2,1.4554508E3,-1.4526171E3,-3.622461E2,1.0658994E3,2.7976328E3,-1.9868768E2,-1.2079319E3,-6.3519867E2,-6.6111496E1,7.25624E2,1.4852218E3,2.2553345E2,3.5442923E2,-1.398996E2,-1.03078186E2,-5.471363E1,-8.868087E1,4.0936024E1,-1.2946765E1,2.6441965E1,8.42178E1,7.583475E1,1.54734E2],"categories":[],"categories_nodes":[],"categories_segments":[],"categories_sizes":[],"default_left":[0,0,0,0,0,0,0,0,0,0,0,0,0,0,0,0,0,0,0,0,0,0,0,0,0],"id":25,"left_children":[1,3,5,7,9,11,13,-1,15,17,19,21,23,-1,-1,-1,-1,-1,-1,-1,-1,-1,-1,-1,-1],"loss_changes":[1.1945884E9,1.6388909E8,1.8748973E8,2.8534656E7,2.4650144E7,3.922301E7,1.7215104E7,0E0,3.208096E6,2.552472E6,4.594454E6,8.370368E6,3.432384E6,0E0,0E0,0E0,0E0,0E0,0E0,0E0,0E0,0E0,0E0,0E0,0E0],"parents":[2147483647,0,0,1,1,2,2,3,3,4,4,5,5,6,6,8,8,9,9,10,10,11,11,12,12],"right_children":[2,4,6,8,10,12,14,-1,16,18,20,22,24,-1,-1,-1,-1,-1,-1,-1,-1,-1,-1,-1,-1],"split_conditions":[2.5927997E-1,-7.237822E-1,1.6827173E0,-1.3579514E0,-2.4666966E-1,8.319913E-1,2.0436158E0,-1.9868768E2,-9.8133E-1,-2.1516497E-1,-7.499801E-1,-8.839222E-1,5.369171E-2,2.2553345E2,3.5442923E2,-1.398996E2,-1.03078186E2,-5.471363E1,-8.868087E1,4.0936024E1,-1.2946765E1,2.6441965E1,8.42178E1,7.583475E1,1.54734E2],"split_indices":[84,2,2,1,2,1,1,0,84,14,75,4,80,0,0,0,0,0,0,0,0,0,0,0,0],"split_type":[0,0,0,0,0,0,0,0,0,0,0,0,0,0,0,0,0,0,0,0,0,0,0,0,0],"sum_hessian":[9.25E2,5.57E2,3.68E2,2.53E2,3.04E2,2.88E2,8E1,7.5E1,1.78E2,1.57E2,1.47E2,1.62E2,1.26E2,5.1E1,2.9E1,7.9E1,9.9E1,1.21E2,3.6E1,1.6E1,1.31E2,3.4E1,1.28E2,1.2E1,1.14E2],"tree_param":{"num_deleted":"0","num_feature":"116","num_nodes":"25","size_leaf_vector":"1"}},{"base_weights":[-4.9997997E1,-8.1970654E2,1.1743234E3,-1.3276558E3,-3.429941E2,6.942668E2,2.1517327E3,-1.8376698E3,-1.0870858E3,-6.253631E2,-1.4364531E2,4.6060416E2,9.944937E2,1.9312653E3,3.567469E2,-2.3954605E2,-1.597216E2,-1.2575923E2,-9.44865E1,-3.0943853E1,-6.829339E1,-2.255151E1,3.5578625E1,5.184902E1,-7.9327188E0,4.879017E1,1.1920196E2,1.08016495E2,2.0301973E2],"categories":[],"categories_nodes":[],"categories_segments":[],"categories_sizes":[],"default_left":[0,0,0,0,0,0,0,0,0,0,0,0,0,0,0,0,0,0,0,0,0,0,0,0,0,0,0,0,0],"id":26,"left_children":[1,3,5,7,9,11,13,15,17,19,21,23,25,27,-1,-1,-1,-1,-1,-1,-1,-1,-1,-1,-1,-1,-1,-1,-1],"loss_changes":[8.519434E8,1.3347994E8,1.6076685E8,2.8886336E7,1.6088052E7,1.5709696E7,2.180208E7,3.479648E6,2.157952E6,1.74162E6,7.193254E6,4.364164E6,9.043296E6,4.286496E6,0E0,0E0,0E0,0E0,0E0,0E0,0E0,0E0,0E0,0E0,0E0,0E0,0E0,0E0,0E0],"parents":[2147483647,0,0,1,1,2,2,3,3,4,4,5,5,6,6,7,7,8,8,9,9,10,10,11,11,12,12,13,13],"right_children":[2,4,6,8,10,12,14,16,18,20,22,24,26,28,-1,-1,-1,-1,-1,-1,-1,-1,-1,-1,-1,-1,-1,-1,-1],"split_conditions":[1.8418117E-1,-7.102349E-1,1.3218973E0,-1.3524282E0,-3.5129204E-1,6.3371855E-1,2.201031E0,-1.5143013E0,-9.694816E-1,5.8958143E-1,5.0437444E-1,1.1257112E0,-4.502265E-1,-9.2130095E-1,3.567469E2,-2.3954605E2,-1.597216E2,-1.2575923E2,-9.44865E1,-3.0943853E1,-6.829339E1,-2.255151E1,3.5578625E1,5.184902E1,-7.9327188E0,4.879017E1,1.1920196E2,1.08016495E2,2.0301973E2],"split_indices":[91,2,28,84,2,91,90,2,2,16,89,52,4,4,0,0,0,0,0,0,0,0,0,0,0,0,0,0,0],"split_type":[0,0,0,0,0,0,0,0,0,0,0,0,0,0,0,0,0,0,0,0,0,0,0,0,0,0,0,0,0],"sum_hessian":[9E2,5.53E2,3.47E2,2.66E2,2.87E2,2.35E2,1.12E2,8.1E1,1.85E2,1.17E2,1.7E2,1.35E2,1E2,1.01E2,1.1E1,1.9E1,6.2E1,7.7E1,1.08E2,2E1,9.7E1,1.47E2,2.3E1,1.22E2,1.3E1,3E1,7E1,1.3E1,8.8E1],"tree_param":{"num_deleted":"0","num_feature":"116","num_nodes":"29","size_leaf_vector":"1"}},{"base_weights":[1.9329178E1,-8.09007E2,9.875002E2,-1.4425365E3,-4.8666626E2,4.705884E2,1.864293E3,-2.2870445E2,-1.2836102E3,-7.334689E2,-2.912986E2,2.4570677E2,6.43967E2,1.6898218E3,3.0179022E2,-1.3932768E2,-1.0956414E2,-7.6120995E1,-2.8294724E1,-3.6631126E1,1.5068912E1,3.4320946E1,-1.756568E1,-5.5376024E0,6.9705284E1,8.096041E1,1.7491093E2],"categories":[],"categories_nodes":[],"categories_segments":[],"categories_sizes":[],"default_left":[0,0,0,0,0,0,0,0,0,0,0,0,0,0,0,0,0,0,0,0,0,0,0,0,0,0,0],"id":27,"left_children":[1,3,5,7,9,11,13,-1,15,17,19,21,23,25,-1,-1,-1,-1,-1,-1,-1,-1,-1,-1,-1,-1,-1],"loss_changes":[7.7229203E8,1.0458198E8,1.994768E8,1.7481568E7,1.630396E7,1.067854E7,2.280864E7,0E0,5.9408E4,1.468824E6,6.641887E6,5.2971845E6,5.943056E6,4.83888E6,0E0,0E0,0E0,0E0,0E0,0E0,0E0,0E0,0E0,0E0,0E0,0E0,0E0],"parents":[2147483647,0,0,1,1,2,2,3,3,4,4,5,5,6,6,8,8,9,9,10,10,11,11,12,12,13,13],"right_children":[2,4,6,8,10,12,14,-1,16,18,20,22,24,26,-1,-1,-1,-1,-1,-1,-1,-1,-1,-1,-1,-1,-1],"split_conditions":[-4.3798643E-3,-9.6615636E-1,1.0078454E0,-1.51988E0,-5.6117874E-1,4.5991942E-1,2.1027508E0,-2.2870445E2,-1.3030714E0,2.1515632E-1,9.589144E-1,3.821181E-1,-1.4412463E0,-1.5610592E-1,3.0179022E2,-1.3932768E2,-1.0956414E2,-7.6120995E1,-2.8294724E1,-3.6631126E1,1.5068912E1,3.4320946E1,-1.756568E1,-5.5376024E0,6.9705284E1,8.096041E1,1.7491093E2],"split_indices":[2,2,1,0,1,1,1,0,1,89,4,25,4,109,0,0,0,0,0,0,0,0,0,0,0,0,0],"split_type":[0,0,0,0,0,0,0,0,0,0,0,0,0,0,0,0,0,0,0,0,0,0,0,0,0,0,0],"sum_hessian":[9.59E2,5.17E2,4.42E2,1.72E2,3.45E2,2.8E2,1.62E2,2.3E1,1.49E2,1.5E2,1.95E2,1.24E2,1.56E2,1.45E2,1.7E1,8.6E1,6.3E1,1.4E2,1E1,1.67E2,2.8E1,1.01E2,2.3E1,1.1E1,1.45E2,1.1E1,1.34E2],"tree_param":{"num_deleted":"0","num_feature":"116","num_nodes":"27","size_leaf_vector":"1"}},{"base_weights":[-4.0236477E1,-7.490825E2,8.53274E2,-1.2169437E3,-4.2992014E2,4.121701E2,1.5301681E3,-1.9306383E2,-1.067784E3,-5.8409326E2,-2.2482771E2,2.1684093E2,5.6075586E2,1.3328113E3,2.6738773E2,-1.1906742E2,-8.859394E1,-7.1287125E1,-4.5106133E1,-2.8206446E1,-4.698393E0,3.5196766E1,-1.6329542E1,9.396688E1,4.5215584E1,9.923467E1,1.6234499E2],"categories":[],"categories_nodes":[],"categories_segments":[],"categories_sizes":[],"default_left":[0,0,0,0,0,0,0,0,0,0,0,0,0,0,0,0,0,0,0,0,0,0,0,0,0,0,0],"id":28,"left_children":[1,3,5,7,9,11,13,-1,15,17,19,21,23,25,-1,-1,-1,-1,-1,-1,-1,-1,-1,-1,-1,-1,-1],"loss_changes":[5.941046E8,7.704976E7,1.2264941E8,1.8338592E7,9.665872E6,7.128612E6,2.9664256E7,0E0,1.89016E6,2.406208E6,1.3781915E6,5.9193915E6,5.034548E6,1.0927824E7,0E0,0E0,0E0,0E0,0E0,0E0,0E0,0E0,0E0,0E0,0E0,0E0,0E0],"parents":[2147483647,0,0,1,1,2,2,3,3,4,4,5,5,6,6,8,8,9,9,10,10,11,11,12,12,13,13],"right_children":[2,4,6,8,10,12,14,-1,16,18,20,22,24,26,-1,-1,-1,-1,-1,-1,-1,-1,-1,-1,-1,-1,-1],"split_conditions":[5.1741436E-2,-8.301288E-1,9.512227E-1,-1.4411136E0,-3.5129204E-1,4.5991942E-1,2.118204E0,-1.9306383E2,-1.3417504E0,-6.304903E-1,-1.3670285E-1,3.4396294E-1,5.324575E-1,8.118039E-1,2.6738773E2,-1.1906742E2,-8.859394E1,-7.1287125E1,-4.5106133E1,-2.8206446E1,-4.698393E0,3.5196766E1,-1.6329542E1,9.396688E1,4.5215584E1,9.923467E1,1.6234499E2],"split_indices":[1,2,2,2,2,1,86,0,13,2,2,0,25,93,0,0,0,0,0,0,0,0,0,0,0,0,0],"split_type":[0,0,0,0,0,0,0,0,0,0,0,0,0,0,0,0,0,0,0,0,0,0,0,0,0,0,0],"sum_hessian":[9.34E2,5.21E2,4.13E2,2.09E2,3.12E2,2.52E2,1.61E2,3.2E1,1.77E2,1.76E2,1.36E2,1.11E2,1.41E2,1.41E2,2E1,9.9E1,7.8E1,8.5E1,9.1E1,1.02E2,3.4E1,8.2E1,2.9E1,2.8E1,1.13E2,6.9E1,7.2E1],"tree_param":{"num_deleted":"0","num_feature":"116","num_nodes":"27","size_leaf_vector":"1"}},{"base_weights":[-1.4745955E1,-6.219426E2,9.836096E2,-1.1559115E3,-3.4059433E2,5.0840536E2,1.4977864E3,-1.9914488E2,-1.0302665E3,-5.347126E2,-1.05104965E2,4.5636075E2,1.1913208E2,1.2767792E3,2.5195134E3,-1.17732475E2,-9.1314766E1,-6.646068E1,-4.281846E1,-2.1397171E1,6.19211E0,7.8651446E-1,5.2660957E1,4.4290707E1,1.3328154E2,1.8083794E2,3.1662875E2],"categories":[],"categories_nodes":[],"categories_segments":[],"categories_sizes":[],"default_left":[0,0,0,0,0,0,0,0,0,0,0,0,0,0,0,0,0,0,0,0,0,0,0,0,0,0,0],"id":29,"left_children":[1,3,5,7,9,11,13,-1,15,17,19,21,-1,23,25,-1,-1,-1,-1,-1,-1,-1,-1,-1,-1,-1,-1],"loss_changes":[5.674126E8,8.664702E7,8.497283E7,1.689248E7,1.744124E7,5.55886E6,3.1727616E7,0E0,9.15392E5,2.336592E6,3.2268245E6,5.568272E6,0E0,5.501152E6,1.426208E6,0E0,0E0,0E0,0E0,0E0,0E0,0E0,0E0,0E0,0E0,0E0,0E0],"parents":[2147483647,0,0,1,1,2,2,3,3,4,4,5,5,6,6,8,8,9,9,10,10,11,11,13,13,14,14],"right_children":[2,4,6,8,10,12,14,-1,16,18,20,22,-1,24,26,-1,-1,-1,-1,-1,-1,-1,-1,-1,-1,-1,-1],"split_conditions":[2.7902108E-1,-9.2212754E-1,9.512227E-1,-1.5407249E0,-3.2579842E-1,2.4283335E0,2.0176291E0,-1.9914488E2,-1.3579514E0,-6.8590695E-1,-8.9619085E-2,-1.2985187E0,1.1913208E2,-1.1525282E0,1.0331173E0,-1.17732475E2,-9.1314766E1,-6.646068E1,-4.281846E1,-2.1397171E1,6.19211E0,7.8651446E-1,5.2660957E1,4.4290707E1,1.3328154E2,1.8083794E2,3.1662875E2],"split_indices":[92,2,2,86,2,15,1,0,1,2,2,4,0,4,93,0,0,0,0,0,0,0,0,0,0,0,0],"split_type":[0,0,0,0,0,0,0,0,0,0,0,0,0,0,0,0,0,0,0,0,0,0,0,0,0,0,0],"sum_hessian":[9.32E2,5.8E2,3.52E2,1.98E2,3.82E2,1.85E2,1.67E2,2.2E1,1.76E2,2.08E2,1.74E2,1.75E2,1E1,1.41E2,2.6E1,7E1,1.06E2,8.9E1,1.19E2,1.05E2,6.9E1,2.4E1,1.51E2,1E1,1.31E2,1.6E1,1E1],"tree_param":{"num_deleted":"0","num_feature":"116","num_nodes":"27","size_leaf_vector":"1"}},{"base_weights":[2.7947495E1,-4.785029E2,9.3722644E2,-8.730766E2,-1.6353067E2,6.293231E2,1.6682141E3,-1.4257373E3,-7.3837274E2,-3.2401114E2,-2.2850035E1,5.0658954E2,1.0394045E3,1.4272417E3,2.6946646E2,-1.8180066E2,-1.1457328E2,-7.676295E1,-2.8036093E1,-2.8629557E1,-6.135148E1,4.71766E0,-2.9226109E1,2.6476978E1,6.6085266E1,1.2843726E2,3.8395E1,1.5238179E2,6.802042E1],"categories":[],"categories_nodes":[],"categories_segments":[],"categories_sizes":[],"default_left":[0,0,0,0,0,0,0,0,0,0,0,0,0,0,0,0,0,0,0,0,0,0,0,0,0,0,0,0,0],"id":30,"left_children":[1,3,5,7,9,11,13,15,17,19,21,23,25,27,-1,-1,-1,-1,-1,-1,-1,-1,-1,-1,-1,-1,-1,-1,-1],"loss_changes":[4.2225875E8,7.291512E7,7.172422E7,1.732464E7,7.435402E6,1.0724144E7,1.6052944E7,1.215824E6,2.437056E6,1.33011E6,3.3857392E6,6.513872E6,7.362964E6,3.842752E6,0E0,0E0,0E0,0E0,0E0,0E0,0E0,0E0,0E0,0E0,0E0,0E0,0E0,0E0,0E0],"parents":[2147483647,0,0,1,1,2,2,3,3,4,4,5,5,6,6,7,7,8,8,9,9,10,10,11,11,12,12,13,13],"right_children":[2,4,6,8,10,12,14,16,18,20,22,24,26,28,-1,-1,-1,-1,-1,-1,-1,-1,-1,-1,-1,-1,-1,-1,-1],"split_conditions":[3.856975E-1,-6.9200754E-1,1.5230215E0,-1.4255047E0,-2.7839243E-1,1.163129E0,2.1194298E0,-1.5365931E0,1.0076168E0,-7.49651E-2,1.5477738E0,6.384552E-1,1.4160832E0,2.2942853E0,2.6946646E2,-1.8180066E2,-1.1457328E2,-7.676295E1,-2.8036093E1,-2.8629557E1,-6.135148E1,4.71766E0,-2.9226109E1,2.6476978E1,6.6085266E1,1.2843726E2,3.8395E1,1.5238179E2,6.802042E1],"split_indices":[1,2,1,2,1,113,1,1,113,69,109,91,30,70,0,0,0,0,0,0,0,0,0,0,0,0,0,0,0],"split_type":[0,0,0,0,0,0,0,0,0,0,0,0,0,0,0,0,0,0,0,0,0,0,0,0,0,0,0,0,0],"sum_hessian":[9.13E2,5.87E2,3.26E2,2.59E2,3.28E2,2.32E2,9.4E1,4.7E1,2.12E2,1.52E2,1.76E2,1.82E2,5E1,8E1,1.4E1,1.5E1,3.2E1,1.98E2,1.4E1,1.38E2,1.4E1,1.41E2,3.5E1,7.3E1,1.09E2,3.5E1,1.5E1,6.9E1,1.1E1],"tree_param":{"num_deleted":"0","num_feature":"116","num_nodes":"29","size_leaf_vector":"1"}},{"base_weights":[2.1324305E1,-4.8405554E2,7.5667303E2,-8.9604065E2,-2.2854083E2,4.8046252E2,1.3927341E3,-1.35497E2,-7.6941626E2,-3.358382E2,-1.4623961E1,3.3492993E2,6.8660675E2,1.1837836E3,2.2053409E2,-8.534336E1,-6.2169575E1,-1.2087711E0,-3.701292E1,1.0561755E1,-4.232562E1,4.33749E1,1.1719306E1,7.4287346E1,1.07964E1,1.4097949E2,9.239795E1],"categories":[],"categories_nodes":[],"categories_segments":[],"categories_sizes":[],"default_left":[0,0,0,0,0,0,0,0,0,0,0,0,0,0,0,0,0,0,0,0,0,0,0,0,0,0,0],"id":31,"left_children":[1,3,5,7,9,11,13,-1,15,17,19,21,23,25,-1,-1,-1,-1,-1,-1,-1,-1,-1,-1,-1,-1,-1],"loss_changes":[3.467205E8,5.7803664E7,6.542248E7,1.0176272E7,7.885878E6,7.580152E6,1.413496E7,0E0,1.048584E6,2.533308E6,5.8381815E6,3.362446E6,3.388364E6,2.972784E6,0E0,0E0,0E0,0E0,0E0,0E0,0E0,0E0,0E0,0E0,0E0,0E0,0E0],"parents":[2147483647,0,0,1,1,2,2,3,3,4,4,5,5,6,6,8,8,9,9,10,10,11,11,12,12,13,13],"right_children":[2,4,6,8,10,12,14,-1,16,18,20,22,24,26,-1,-1,-1,-1,-1,-1,-1,-1,-1,-1,-1,-1,-1],"split_conditions":[2.332755E-1,-8.2446563E-1,1.4642333E0,-1.4331065E0,-1.9930756E-1,5.919331E-1,2.1166694E0,-1.35497E2,-1.1407398E0,5.8958143E-1,1.5750067E-1,6.970362E-1,1.4354721E0,1.7584417E0,2.2053409E2,-8.534336E1,-6.2169575E1,-1.2087711E0,-3.701292E1,1.0561755E1,-4.232562E1,4.33749E1,1.1719306E1,7.4287346E1,1.07964E1,1.4097949E2,9.239795E1],"split_indices":[2,86,2,2,2,101,11,0,34,16,25,81,0,25,0,0,0,0,0,0,0,0,0,0,0,0,0],"split_type":[0,0,0,0,0,0,0,0,0,0,0,0,0,0,0,0,0,0,0,0,0,0,0,0,0,0,0],"sum_hessian":[9.29E2,5.51E2,3.78E2,2.09E2,3.42E2,2.66E2,1.12E2,4.1E1,1.68E2,2.27E2,1.15E2,1.59E2,1.07E2,9.3E1,1.9E1,1.01E2,6.7E1,2.2E1,2.05E2,9E1,2.5E1,1.08E2,5.1E1,9.7E1,1E1,4.5E1,4.8E1],"tree_param":{"num_deleted":"0","num_feature":"116","num_nodes":"27","size_leaf_vector":"1"}},{"base_weights":[-7.825947E0,-3.9088492E2,7.774968E2,-7.6004553E2,-1.2868102E2,4.8830267E2,1.2975625E3,-1.5720158E2,-6.88837E2,-2.6380417E2,4.13939E1,5.2748193E2,-2.0035105E1,1.1254515E3,2.066202E2,-8.015566E1,-5.333445E1,-3.6368492E1,-1.8032194E1,-1.0520451E1,3.7398453E1,3.835568E1,7.898516E1,1.2292053E2,4.8544857E1],"categories":[],"categories_nodes":[],"categories_segments":[],"categories_sizes":[],"default_left":[0,0,0,0,0,0,0,0,0,0,0,0,0,0,0,0,0,0,0,0,0,0,0,0,0],"id":32,"left_children":[1,3,5,7,9,11,13,-1,15,17,19,21,-1,23,-1,-1,-1,-1,-1,-1,-1,-1,-1,-1,-1],"loss_changes":[2.7526096E8,5.933344E7,4.385261E7,1.2577952E7,8.3410055E6,5.49966E6,9.371728E6,0E0,3.316296E6,1.553114E6,7.9773925E6,6.417632E6,0E0,4.849048E6,0E0,0E0,0E0,0E0,0E0,0E0,0E0,0E0,0E0,0E0,0E0],"parents":[2147483647,0,0,1,1,2,2,3,3,4,4,5,5,6,6,8,8,9,9,10,10,11,11,13,13],"right_children":[2,4,6,8,10,12,14,-1,16,18,20,22,-1,24,-1,-1,-1,-1,-1,-1,-1,-1,-1,-1,-1],"split_conditions":[4.8954523E-1,-7.308855E-1,1.4463314E0,-1.5365931E0,-1.9167288E-1,1.3942552E0,2.1194298E0,-1.5720158E2,-9.962126E-1,-4.4734105E-1,3.7609565E-1,8.2984763E-1,-2.0035105E1,2.1819272E0,2.066202E2,-8.015566E1,-5.333445E1,-3.6368492E1,-1.8032194E1,-1.0520451E1,3.7398453E1,3.835568E1,7.898516E1,1.2292053E2,4.8544857E1],"split_indices":[1,1,86,1,1,0,1,0,84,1,4,15,0,54,0,0,0,0,0,0,0,0,0,0,0],"split_type":[0,0,0,0,0,0,0,0,0,0,0,0,0,0,0,0,0,0,0,0,0,0,0,0,0],"sum_hessian":[9.11E2,6.13E2,2.98E2,2.53E2,3.6E2,1.94E2,1.04E2,1.7E1,2.36E2,2E2,1.6E2,1.84E2,1E1,8.9E1,1.5E1,1.32E2,1.04E2,8.8E1,1.12E2,1.12E2,4.8E1,1.22E2,6.2E1,7.5E1,1.4E1],"tree_param":{"num_deleted":"0","num_feature":"116","num_nodes":"25","size_leaf_vector":"1"}},{"base_weights":[3.0137642E1,-3.6546136E2,7.019082E2,-6.3467896E2,-8.439876E1,4.557756E2,1.186246E3,-1.1602637E3,-5.5159784E2,-1.6677069E2,1.9897064E2,2.6360248E2,6.605111E2,1.0261191E3,1.935133E2,-1.4274419E2,-8.502709E1,-6.708846E1,-4.445304E1,-2.1374945E1,2.6440802E1,3.4852474E1,-3.5597668E1,9.925259E0,4.6318768E1,4.4983524E1,1.175166E2,1.9563406E1,1.1697609E2],"categories":[],"categories_nodes":[],"categories_segments":[],"categories_sizes":[],"default_left":[0,0,0,0,0,0,0,0,0,0,0,0,0,0,0,0,0,0,0,0,0,0,0,0,0,0,0,0,0],"id":33,"left_children":[1,3,5,7,9,11,13,15,17,19,21,23,25,27,-1,-1,-1,-1,-1,-1,-1,-1,-1,-1,-1,-1,-1,-1,-1],"loss_changes":[2.4739646E8,4.4233656E7,4.0046416E7,1.1776032E7,6.8121085E6,8.77964E6,9.8188E6,8.02456E5,2.749624E6,4.670684E6,5.72578E6,3.94262E6,1.0977796E7,1.1352104E7,0E0,0E0,0E0,0E0,0E0,0E0,0E0,0E0,0E0,0E0,0E0,0E0,0E0,0E0,0E0],"parents":[2147483647,0,0,1,1,2,2,3,3,4,4,5,5,6,6,7,7,8,8,9,9,10,10,11,11,12,12,13,13],"right_children":[2,4,6,8,10,12,14,16,18,20,22,24,26,28,-1,-1,-1,-1,-1,-1,-1,-1,-1,-1,-1,-1,-1,-1,-1],"split_conditions":[3.5179698E-1,-5.952443E-1,1.3956212E0,-1.435596E0,2.2134604E-1,5.2873008E-2,9.1294676E-1,-1.5365931E0,-9.5440996E-1,1.968278E-1,1.9685379E-1,7.331645E-1,9.8022336E-1,1.5622488E0,1.935133E2,-1.4274419E2,-8.502709E1,-6.708846E1,-4.445304E1,-2.1374945E1,2.6440802E1,3.4852474E1,-3.5597668E1,9.925259E0,4.6318768E1,4.4983524E1,1.175166E2,1.9563406E1,1.1697609E2],"split_indices":[1,1,99,1,85,4,4,1,113,87,24,113,85,36,0,0,0,0,0,0,0,0,0,0,0,0,0,0,0],"split_type":[0,0,0,0,0,0,0,0,0,0,0,0,0,0,0,0,0,0,0,0,0,0,0,0,0,0,0,0,0],"sum_hessian":[9.27E2,5.84E2,3.43E2,2.97E2,2.87E2,2.3E2,1.13E2,3.7E1,2.6E2,2.23E2,6.4E1,1.21E2,1.09E2,9.7E1,1.6E1,1.6E1,2.1E1,1.18E2,1.42E2,2.02E2,2.1E1,5.1E1,1.3E1,6.8E1,5.3E1,8E1,2.9E1,1.5E1,8.2E1],"tree_param":{"num_deleted":"0","num_feature":"116","num_nodes":"29","size_leaf_vector":"1"}},{"base_weights":[1.5939257E1,-3.898417E2,5.6754755E2,-7.19535E2,-2.4640233E2,4.134489E2,1.411459E3,-9.295217E1,-5.9666523E1,-3.8617746E2,-1.3298824E2,2.1316644E2,6.3859656E2,1.9016885E2,9.535476E2,-4.645256E1,-2.7267279E1,-9.418962E0,-7.3805954E1,-4.38667E0,3.1959003E1,3.490838E1,8.972822E1,1.3029146E2,6.993977E1],"categories":[],"categories_nodes":[],"categories_segments":[],"categories_sizes":[],"default_left":[0,0,0,0,0,0,0,0,0,0,0,0,0,0,0,0,0,0,0,0,0,0,0,0,0],"id":34,"left_children":[1,3,5,7,9,11,13,-1,-1,15,17,19,21,-1,23,-1,-1,-1,-1,-1,-1,-1,-1,-1,-1],"loss_changes":[2.0121997E8,2.4142048E7,4.8380064E7,2.915584E6,5.667534E6,1.438292E7,9.392936E6,0E0,0E0,1.187246E6,4.6499715E6,4.8150835E6,1.0757128E7,0E0,1.1962E6,0E0,0E0,0E0,0E0,0E0,0E0,0E0,0E0,0E0,0E0],"parents":[2147483647,0,0,1,1,2,2,3,3,4,4,5,5,6,6,9,9,10,10,11,11,12,12,14,14],"right_children":[2,4,6,8,10,12,14,-1,-1,16,18,20,22,-1,24,-1,-1,-1,-1,-1,-1,-1,-1,-1,-1],"split_conditions":[1.3921927E-1,-1.0277659E0,7.491447E-1,-1.4222089E0,-5.2709216E-1,1.3639638E-1,1.2355748E0,-9.295217E1,-5.9666523E1,6.0195398E-2,1.9720799E-1,6.9541615E-1,2.2134604E-1,1.9016885E2,1.8315641E0,-4.645256E1,-2.7267279E1,-9.418962E0,-7.3805954E1,-4.38667E0,3.1959003E1,3.490838E1,8.972822E1,1.3029146E2,6.993977E1],"split_indices":[86,103,16,86,87,4,70,0,0,4,9,43,85,0,25,0,0,0,0,0,0,0,0,0,0],"split_type":[0,0,0,0,0,0,0,0,0,0,0,0,0,0,0,0,0,0,0,0,0,0,0,0,0],"sum_hessian":[8.95E2,5.16E2,3.79E2,1.54E2,3.62E2,3.23E2,5.6E1,5.2E1,1.02E2,1.6E2,2.02E2,1.73E2,1.5E2,2.4E1,3.2E1,9.1E1,6.9E1,1.92E2,1E1,5.1E1,1.22E2,7.3E1,7.7E1,1E1,2.2E1],"tree_param":{"num_deleted":"0","num_feature":"116","num_nodes":"25","size_leaf_vector":"1"}},{"base_weights":[2.0031036E1,-2.3122621E2,8.1031396E2,-4.852191E2,-1.2407943E1,7.0520337E2,1.7692264E2,-7.5860693E2,-3.7269168E2,-1.6806189E2,1.5165694E2,2.0328578E2,8.1565424E2,-1.1662536E2,-6.51679E1,-4.5947105E1,-2.6763397E1,-1.3174972E1,-6.2647907E1,5.548903E0,4.638638E1,-3.7795296E1,4.222322E1,7.006923E1,1.2014447E2],"categories":[],"categories_nodes":[],"categories_segments":[],"categories_sizes":[],"default_left":[0,0,0,0,0,0,0,0,0,0,0,0,0,0,0,0,0,0,0,0,0,0,0,0,0],"id":35,"left_children":[1,3,5,7,9,11,-1,13,15,17,19,21,23,-1,-1,-1,-1,-1,-1,-1,-1,-1,-1,-1,-1],"loss_changes":[1.860324E8,3.9504068E7,2.0283392E7,9.555664E6,9.857318E6,1.1143792E7,0E0,2.57712E6,1.91468E6,3.13078E6,5.5930335E6,5.4095775E6,5.811472E6,0E0,0E0,0E0,0E0,0E0,0E0,0E0,0E0,0E0,0E0,0E0,0E0],"parents":[2147483647,0,0,1,1,2,2,3,3,4,4,5,5,7,7,8,8,9,9,10,10,11,11,12,12],"right_children":[2,4,6,8,10,12,-1,14,16,18,20,22,24,-1,-1,-1,-1,-1,-1,-1,-1,-1,-1,-1,-1],"split_conditions":[7.511892E-1,-5.758699E-1,2.1166694E0,-1.3230954E0,-4.3798643E-3,-8.0343264E-1,1.7692264E2,-1.5448009E0,6.0195398E-2,2.5017148E-2,8.1593287E-1,6.171173E-1,1.797024E0,-1.1662536E2,-6.51679E1,-4.5947105E1,-2.6763397E1,-1.3174972E1,-6.2647907E1,5.548903E0,4.638638E1,-3.7795296E1,4.222322E1,7.006923E1,1.2014447E2],"split_indices":[95,2,11,2,2,4,0,0,4,91,15,101,42,0,0,0,0,0,0,0,0,0,0,0,0],"split_type":[0,0,0,0,0,0,0,0,0,0,0,0,0,0,0,0,0,0,0,0,0,0,0,0,0],"sum_hessian":[9.33E2,7.09E2,2.24E2,3.27E2,3.82E2,2.05E2,1.9E1,9.2E1,2.35E2,1.96E2,1.86E2,3.8E1,1.67E2,1.5E1,7.7E1,1.25E2,1.1E2,1.84E2,1.2E1,1.44E2,4.2E1,1E1,2.8E1,1.33E2,3.4E1],"tree_param":{"num_deleted":"0","num_feature":"116","num_nodes":"25","size_leaf_vector":"1"}},{"base_weights":[6.592237E0,-3.271408E2,4.0306775E2,-5.7366327E2,-1.8806659E2,2.8484213E2,1.0399955E3,-1.0190045E2,-5.080408E2,-2.4334618E2,2.5574673E1,1.8671318E1,3.744224E2,8.0066833E2,1.8741167E2,-5.3430325E1,-3.0514282E1,-3.6463814E1,-1.5555841E1,-1.4746798E1,2.9927038E1,2.123371E1,-7.47759E1,2.9755075E1,9.404388E1,9.283872E1,2.5502626E1],"categories":[],"categories_nodes":[],"categories_segments":[],"categories_sizes":[],"default_left":[0,0,0,0,0,0,0,0,0,0,0,0,0,0,0,0,0,0,0,0,0,0,0,0,0,0,0],"id":36,"left_children":[1,3,5,7,9,11,13,-1,15,17,19,21,23,25,-1,-1,-1,-1,-1,-1,-1,-1,-1,-1,-1,-1,-1],"loss_changes":[1.215984E8,1.6892328E7,3.1033896E7,4.195616E6,3.815288E6,8.498164E6,9.974448E6,0E0,5.26416E5,2.612378E6,3.308831E6,1.3973183E7,1.1057552E7,3.289548E6,0E0,0E0,0E0,0E0,0E0,0E0,0E0,0E0,0E0,0E0,0E0,0E0,0E0],"parents":[2147483647,0,0,1,1,2,2,3,3,4,4,5,5,6,6,8,8,9,9,10,10,11,11,12,12,13,13],"right_children":[2,4,6,8,10,12,14,-1,16,18,20,22,24,26,-1,-1,-1,-1,-1,-1,-1,-1,-1,-1,-1,-1,-1],"split_conditions":[4.1367747E-2,-8.478787E-1,1.7853345E0,-1.5426067E0,6.4509225E-1,-8.0343264E-1,2.1654432E0,-1.0190045E2,1.2863532E0,-5.6862134E-1,-1.22819096E-1,1.9675149E0,1.9297019E0,2.1269817E0,1.8741167E2,-5.3430325E1,-3.0514282E1,-3.6463814E1,-1.5555841E1,-1.4746798E1,2.9927038E1,2.123371E1,-7.47759E1,2.9755075E1,9.404388E1,9.283872E1,2.5502626E1],"split_indices":[1,106,90,94,4,4,1,0,4,1,85,85,89,27,0,0,0,0,0,0,0,0,0,0,0,0,0],"split_type":[0,0,0,0,0,0,0,0,0,0,0,0,0,0,0,0,0,0,0,0,0,0,0,0,0,0,0],"sum_hessian":[9.15E2,4.97E2,4.18E2,1.77E2,3.2E2,3.55E2,6.3E1,1.9E1,1.58E2,2.54E2,6.6E1,9E1,2.65E2,5.2E1,1.1E1,1.37E2,2.1E1,1.04E2,1.5E2,4.1E1,2.5E1,7.3E1,1.7E1,2.36E2,2.9E1,4.1E1,1.1E1],"tree_param":{"num_deleted":"0","num_feature":"116","num_nodes":"27","size_leaf_vector":"1"}},{"base_weights":[3.5751712E0,-2.7345004E2,4.135832E2,-5.838811E2,-1.8113655E2,2.2806818E2,6.517445E2,-9.6123924E1,-5.1216656E2,-2.216381E2,-7.5839796E0,8.1710045E1,1.789102E2,5.250527E2,1.0441912E3,-5.300857E1,-3.2679966E1,-2.0211412E1,-7.394967E1,4.068689E0,-3.0399866E1,2.5377897E1,-1.1660393E1,1.1272947E2,4.5490765E1,6.433145E1,1.2772501E2],"categories":[],"categories_nodes":[],"categories_segments":[],"categories_sizes":[],"default_left":[0,0,0,0,0,0,0,0,0,0,0,0,0,0,0,0,0,0,0,0,0,0,0,0,0,0,0],"id":37,"left_children":[1,3,5,7,9,11,13,-1,15,17,19,-1,21,23,25,-1,-1,-1,-1,-1,-1,-1,-1,-1,-1,-1,-1],"loss_changes":[1.0619873E8,1.5778988E7,1.6359436E7,2.452104E6,3.040236E6,5.932987E6,7.057376E6,0E0,2.2148E4,3.249824E6,1.2266521E6,0E0,4.506278E6,4.38148E6,1.90672E6,0E0,0E0,0E0,0E0,0E0,0E0,0E0,0E0,0E0,0E0,0E0,0E0],"parents":[2147483647,0,0,1,1,2,2,3,3,4,4,5,5,6,6,8,8,9,9,10,10,12,12,13,13,14,14],"right_children":[2,4,6,8,10,12,14,-1,16,18,20,-1,22,24,26,-1,-1,-1,-1,-1,-1,-1,-1,-1,-1,-1,-1],"split_conditions":[2.3807596E-1,-1.269842E0,1.0078454E0,-1.5365931E0,5.791869E-1,2.7751973E-1,9.4132024E-1,-9.6123924E1,-1.2575097E0,1.5084143E0,2.3489137E-1,8.1710045E1,1.0928758E0,5.758145E-1,4.3998632E-1,-5.300857E1,-3.2679966E1,-2.0211412E1,-7.394967E1,4.068689E0,-3.0399866E1,2.5377897E1,-1.1660393E1,1.1272947E2,4.5490765E1,6.433145E1,1.2772501E2],"split_indices":[1,88,1,1,7,24,19,0,46,85,44,0,85,58,85,0,0,0,0,0,0,0,0,0,0,0,0],"split_type":[0,0,0,0,0,0,0,0,0,0,0,0,0,0,0,0,0,0,0,0,0,0,0,0,0,0,0],"sum_hessian":[9.31E2,5.56E2,3.75E2,1.25E2,4.31E2,2.13E2,1.62E2,1.6E1,1.09E2,3.49E2,8.2E1,1.4E1,1.99E2,1.26E2,3.6E1,9.6E1,1.3E1,3.39E2,1E1,7.2E1,1E1,1.59E2,4E1,1E1,1.16E2,1.6E1,2E1],"tree_param":{"num_deleted":"0","num_feature":"116","num_nodes":"27","size_leaf_vector":"1"}},{"base_weights":[2.5262537E0,-1.9314989E2,6.094467E2,-3.8140372E2,-1.7763056E1,5.1457477E2,1.7903127E2,-8.8732E1,-3.4400415E2,-7.981569E1,1.5057565E2,4.1351245E2,8.0962964E2,-4.4175026E1,-2.6610815E1,-4.06918E0,-8.409779E1,7.4959826E0,6.392635E1,5.055129E1,1.2657966E1,6.050771E1,1.3301907E2],"categories":[],"categories_nodes":[],"categories_segments":[],"categories_sizes":[],"default_left":[0,0,0,0,0,0,0,0,0,0,0,0,0,0,0,0,0,0,0,0,0,0,0],"id":38,"left_children":[1,3,5,7,9,11,-1,-1,13,15,17,19,21,-1,-1,-1,-1,-1,-1,-1,-1,-1,-1],"loss_changes":[1.1008834E8,2.3131496E7,2.347628E7,5.784716E6,3.8367685E6,5.651908E6,0E0,0E0,2.186084E6,7.912409E6,3.5623918E6,4.14843E6,3.927136E6,0E0,0E0,0E0,0E0,0E0,0E0,0E0,0E0,0E0,0E0],"parents":[2147483647,0,0,1,1,2,2,3,3,4,4,5,5,8,8,9,9,10,10,11,11,12,12],"right_children":[2,4,6,8,10,12,-1,-1,14,16,18,20,22,-1,-1,-1,-1,-1,-1,-1,-1,-1,-1],"split_conditions":[7.1013993E-1,-5.6186485E-1,2.1654432E0,-1.4517072E0,5.765384E-1,1.6714895E0,1.7903127E2,-8.8732E1,-9.440925E-1,1.91157E0,1.3771392E0,1.5517641E0,1.2889154E0,-4.4175026E1,-2.6610815E1,-4.06918E0,-8.409779E1,7.4959826E0,6.392635E1,5.055129E1,1.2657966E1,6.050771E1,1.3301907E2],"split_indices":[91,86,1,86,4,8,0,0,113,85,85,52,89,0,0,0,0,0,0,0,0,0,0],"split_type":[0,0,0,0,0,0,0,0,0,0,0,0,0,0,0,0,0,0,0,0,0,0,0],"sum_hessian":[9.23E2,6.99E2,2.24E2,3.36E2,3.63E2,2.1E2,1.4E1,2E1,3.16E2,2.66E2,9.7E1,1.6E2,5E1,1.36E2,1.8E2,2.55E2,1.1E1,8.6E1,1.1E1,1.2E2,4E1,3.9E1,1.1E1],"tree_param":{"num_deleted":"0","num_feature":"116","num_nodes":"23","size_leaf_vector":"1"}},{"base_weights":[-5.6508822E0,-2.4316585E2,3.9823145E2,-4.696071E2,-1.6174146E2,3.484406E2,1.1686841E2,-6.3443396E2,-3.836053E1,-1.3847913E2,-8.5440414E1,2.8761435E2,8.588896E2,-8.190938E1,-5.2431377E1,-2.016276E1,9.070983E0,1.5277495E1,4.092776E1,1.11326965E2,3.1582342E1],"categories":[],"categories_nodes":[],"categories_segments":[],"categories_sizes":[],"default_left":[0,0,0,0,0,0,0,0,0,0,0,0,0,0,0,0,0,0,0,0,0],"id":39,"left_children":[1,3,5,7,9,11,-1,13,-1,15,-1,17,19,-1,-1,-1,-1,-1,-1,-1,-1],"loss_changes":[8.470631E7,1.0099468E7,1.1729624E7,1.582762E6,6.401802E6,9.130924E6,0E0,9.6674E4,0E0,5.840236E6,0E0,4.46829E6,3.717308E6,0E0,0E0,0E0,0E0,0E0,0E0,0E0,0E0],"parents":[2147483647,0,0,1,1,2,2,3,3,4,4,5,5,7,7,9,9,11,11,12,12],"right_children":[2,4,6,8,10,12,-1,14,-1,16,-1,18,20,-1,-1,-1,-1,-1,-1,-1,-1],"split_conditions":[2.6368403E-1,-9.947766E-1,2.4910004E0,-1.435596E0,2.7175725E-1,1.9735087E0,1.1686841E2,-1.5593044E0,-3.836053E1,-1.45726E-1,-8.5440414E1,3.4795713E-1,2.1228685E0,-8.190938E1,-5.2431377E1,-2.016276E1,9.070983E0,1.5277495E1,4.092776E1,1.11326965E2,3.1582342E1],"split_indices":[90,1,101,1,24,44,0,2,0,2,0,6,53,0,0,0,0,0,0,0,0],"split_type":[0,0,0,0,0,0,0,0,0,0,0,0,0,0,0,0,0,0,0,0,0],"sum_hessian":[8.79E2,5.54E2,3.25E2,1.44E2,4.1E2,3.08E2,1.7E1,4.5E1,9.9E1,3.99E2,1.1E1,2.78E2,3E1,1.2E1,3.3E1,3.13E2,8.6E1,1.34E2,1.44E2,1.9E1,1.1E1],"tree_param":{"num_deleted":"0","num_feature":"116","num_nodes":"21","size_leaf_vector":"1"}},{"base_weights":[-6.101223E0,-1.4213573E2,5.2573474E2,-2.705235E2,6.184414E1,4.2671124E2,1.133266E3,-5.904375E2,-2.3285143E2,-3.6402148E2,1.0941813E2,9.7964645E1,4.9884833E2,1.481782E2,6.477418E1,-7.8453384E1,-4.459016E1,-2.8753967E1,-1.1795821E1,-1.2292448E0,-5.4784283E1,1.4685321E1,-2.3447077E1,3.7656548E1,-2.6798498E1,2.6760788E1,6.4824425E1],"categories":[],"categories_nodes":[],"categories_segments":[],"categories_sizes":[],"default_left":[0,0,0,0,0,0,0,0,0,0,0,0,0,0,0,0,0,0,0,0,0,0,0,0,0,0,0],"id":40,"left_children":[1,3,5,7,9,11,13,15,17,19,21,23,25,-1,-1,-1,-1,-1,-1,-1,-1,-1,-1,-1,-1,-1,-1],"loss_changes":[6.6420216E7,1.9177292E7,1.0282584E7,5.136216E6,5.833511E6,3.791436E6,2.310486E6,5.90706E5,2.476866E6,1.8614792E6,3.3773485E6,3.4643628E6,4.282172E6,0E0,0E0,0E0,0E0,0E0,0E0,0E0,0E0,0E0,0E0,0E0,0E0,0E0,0E0],"parents":[2147483647,0,0,1,1,2,2,3,3,4,4,5,5,6,6,7,7,8,8,9,9,10,10,11,11,12,12],"right_children":[2,4,6,8,10,12,14,16,18,20,22,24,26,-1,-1,-1,-1,-1,-1,-1,-1,-1,-1,-1,-1,-1,-1],"split_conditions":[9.0778947E-1,-1.9050795E-1,2.0436158E0,-1.4315084E0,-1.2366253E0,-7.694944E-1,2.0995548E0,-1.5593044E0,3.3697084E-1,2.4210678E-1,1.7213864E0,1.1980116E0,6.8822587E-1,1.481782E2,6.477418E1,-7.8453384E1,-4.459016E1,-2.8753967E1,-1.1795821E1,-1.2292448E0,-5.4784283E1,1.4685321E1,-2.3447077E1,3.7656548E1,-2.6798498E1,2.6760788E1,6.4824425E1],"split_indices":[86,2,1,1,4,4,96,2,4,85,113,85,113,0,0,0,0,0,0,0,0,0,0,0,0,0,0],"split_type":[0,0,0,0,0,0,0,0,0,0,0,0,0,0,0,0,0,0,0,0,0,0,0,0,0,0,0],"sum_hessian":[9.14E2,7.29E2,1.85E2,4.47E2,2.82E2,1.62E2,2.3E1,4.4E1,4.03E2,2.7E1,2.55E2,3E1,1.32E2,1.1E1,1.2E1,1.5E1,2.9E1,2.71E2,1.32E2,1E1,1.7E1,2.31E2,2.4E1,1.7E1,1.3E1,5.4E1,7.8E1],"tree_param":{"num_deleted":"0","num_feature":"116","num_nodes":"27","size_leaf_vector":"1"}},{"base_weights":[1.9824827E1,-1.7371509E2,3.356039E2,-3.8174554E2,-1.15694336E2,2.7176846E2,7.1403577E2,-7.549996E1,-3.353505E2,-1.3569493E2,1.4344312E2,2.173593E2,7.316285E2,4.587176E2,9.856746E2,-3.474455E1,-2.0017931E1,-1.9906769E1,-1.5771093E0,3.1807697E1,-1.7415157E1,2.5487549E1,-1.5720363E1,1.9349333E1,1.0987768E2,5.927908E1,1.6997377E1,6.0223938E1,1.2048224E2],"categories":[],"categories_nodes":[],"categories_segments":[],"categories_sizes":[],"default_left":[0,0,0,0,0,0,0,0,0,0,0,0,0,0,0,0,0,0,0,0,0,0,0,0,0,0,0,0,0],"id":41,"left_children":[1,3,5,7,9,11,13,-1,15,17,19,21,23,25,27,-1,-1,-1,-1,-1,-1,-1,-1,-1,-1,-1,-1,-1,-1],"loss_changes":[5.5976508E7,6.767428E6,8.018556E6,1.62352E6,2.3556855E6,7.213056E6,2.493928E6,0E0,4.5585E4,3.1552595E6,1.9410735E6,3.902338E6,5.699498E6,9.210775E5,3.97274E5,0E0,0E0,0E0,0E0,0E0,0E0,0E0,0E0,0E0,0E0,0E0,0E0,0E0,0E0],"parents":[2147483647,0,0,1,1,2,2,3,3,4,4,5,5,6,6,8,8,9,9,10,10,11,11,12,12,13,13,14,14],"right_children":[2,4,6,8,10,12,14,-1,16,18,20,22,24,26,28,-1,-1,-1,-1,-1,-1,-1,-1,-1,-1,-1,-1,-1,-1],"split_conditions":[2.6556727E-1,-1.2670072E0,1.8706101E0,-1.5548584E0,3.0238912E-1,1.6514562E0,1.869745E0,-7.549996E1,-5.4666626E-1,3.0451983E-1,1.693708E-1,1.7825515E0,-4.1603187E-1,2.178787E0,1.9469974E0,-3.474455E1,-2.0017931E1,-1.9906769E1,-1.5771093E0,3.1807697E1,-1.7415157E1,2.5487549E1,-1.5720363E1,1.9349333E1,1.0987768E2,5.927908E1,1.6997377E1,6.0223938E1,1.2048224E2],"split_indices":[1,114,71,1,43,4,32,0,85,4,25,47,3,53,52,0,0,0,0,0,0,0,0,0,0,0,0,0,0],"split_type":[0,0,0,0,0,0,0,0,0,0,0,0,0,0,0,0,0,0,0,0,0,0,0,0,0,0,0,0,0],"sum_hessian":[9.12E2,5.66E2,3.46E2,1.21E2,4.45E2,2.99E2,4.7E1,1E1,1.11E2,4.14E2,3.1E1,2.7E2,2.9E1,2.7E1,2E1,9.9E1,1.2E1,2.7E2,1.44E2,2E1,1.1E1,2.46E2,2.4E1,1.3E1,1.6E1,1.7E1,1E1,1E1,1E1],"tree_param":{"num_deleted":"0","num_feature":"116","num_nodes":"29","size_leaf_vector":"1"}},{"base_weights":[5.2376213E0,-1.2906473E2,3.9152704E2,-3.0286774E2,-4.1012592E1,2.8599118E2,8.127052E2,-6.814557E1,-2.657296E2,-1.16021736E2,1.0231844E2,2.0287357E2,5.3201434E2,1.112403E3,2.6971863E1,-2.8132706E1,-5.5549498E0,-8.587332E0,-6.3476307E1,5.5972643E0,6.49131E1,1.5061258E1,6.0866127E1,8.758925E1,2.9801641E1,1.3485645E2,5.530717E1],"categories":[],"categories_nodes":[],"categories_segments":[],"categories_sizes":[],"default_left":[0,0,0,0,0,0,0,0,0,0,0,0,0,0,0,0,0,0,0,0,0,0,0,0,0,0,0],"id":42,"left_children":[1,3,5,7,9,11,13,-1,15,17,19,21,23,25,-1,-1,-1,-1,-1,-1,-1,-1,-1,-1,-1,-1,-1],"loss_changes":[4.7259624E7,1.0320442E7,9.980648E6,2.82937E6,4.872507E6,3.689794E6,6.885456E6,0E0,6.57149E5,4.535762E6,3.880687E6,2.912782E6,3.25976E6,2.338784E6,0E0,0E0,0E0,0E0,0E0,0E0,0E0,0E0,0E0,0E0,0E0,0E0,0E0],"parents":[2147483647,0,0,1,1,2,2,3,3,4,4,5,5,6,6,8,8,9,9,10,10,11,11,12,12,13,13],"right_children":[2,4,6,8,10,12,14,-1,16,18,20,22,24,26,-1,-1,-1,-1,-1,-1,-1,-1,-1,-1,-1,-1,-1],"split_conditions":[6.531212E-1,-8.144339E-1,1.7327576E0,-1.5638458E0,5.765384E-1,3.873619E-1,2.1554437E0,-6.814557E1,-3.1746826E-1,1.4266874E0,2.1507854E0,1.5077837E0,8.962126E-1,2.0562007E0,2.6971863E1,-2.8132706E1,-5.5549498E0,-8.587332E0,-6.3476307E1,5.5972643E0,6.49131E1,1.5061258E1,6.0866127E1,8.758925E1,2.9801641E1,1.3485645E2,5.530717E1],"split_indices":[50,84,8,9,4,4,27,0,89,93,89,19,7,48,0,0,0,0,0,0,0,0,0,0,0,0,0],"split_type":[0,0,0,0,0,0,0,0,0,0,0,0,0,0,0,0,0,0,0,0,0,0,0,0,0,0,0],"sum_hessian":[9.07E2,6.74E2,2.33E2,2.25E2,4.49E2,1.89E2,4.4E1,1.7E1,2.08E2,2.95E2,1.54E2,1.44E2,4.5E1,2.7E1,1.7E1,1.93E2,1.5E1,2.81E2,1.4E1,1.44E2,1E1,1.3E2,1.4E1,1.6E1,2.9E1,1.7E1,1E1],"tree_param":{"num_deleted":"0","num_feature":"116","num_nodes":"27","size_leaf_vector":"1"}},{"base_weights":[3.534437E1,-8.592888E1,4.567943E2,-2.4439037E2,2.0730482E1,3.6218848E2,7.51141E2,-4.1881216E2,-2.0037105E2,-2.4382637E0,3.3967206E2,4.6254977E2,6.261972E0,1.654836E1,9.1630756E2,-5.8328438E1,-3.4195614E1,-2.653269E1,-1.0867224E1,2.8605828E0,-5.3984833E1,5.7822296E1,-9.463717E0,1.5048449E1,6.4912125E1,-3.8197033E1,4.5850945E1,2.556999E1,1.2129394E2],"categories":[],"categories_nodes":[],"categories_segments":[],"categories_sizes":[],"default_left":[0,0,0,0,0,0,0,0,0,0,0,0,0,0,0,0,0,0,0,0,0,0,0,0,0,0,0,0,0],"id":43,"left_children":[1,3,5,7,9,11,13,15,17,19,21,23,25,-1,27,-1,-1,-1,-1,-1,-1,-1,-1,-1,-1,-1,-1,-1,-1],"loss_changes":[4.6895852E7,1.2060853E7,5.1644E6,2.035668E6,3.164386E6,5.67384E6,4.339714E6,3.0887E5,1.33013E6,6.720983E6,3.1140322E6,7.02414E6,6.8466325E6,0E0,6.62997E6,0E0,0E0,0E0,0E0,0E0,0E0,0E0,0E0,0E0,0E0,0E0,0E0,0E0,0E0],"parents":[2147483647,0,0,1,1,2,2,3,3,4,4,5,5,6,6,7,7,8,8,9,9,10,10,11,11,12,12,14,14],"right_children":[2,4,6,8,10,12,14,16,18,20,22,24,26,-1,28,-1,-1,-1,-1,-1,-1,-1,-1,-1,-1,-1,-1,-1,-1],"split_conditions":[8.62508E-1,-5.7670915E-1,1.39193E0,-1.4185019E0,6.9260204E-1,1.4164927E0,3.6387318E-1,-1.5593044E0,3.7609565E-1,1.4331041E-1,3.1869656E-1,-8.146682E-2,1.3491986E0,1.654836E1,1.3519199E0,-5.8328438E1,-3.4195614E1,-2.653269E1,-1.0867224E1,2.8605828E0,-5.3984833E1,5.7822296E1,-9.463717E0,1.5048449E1,6.4912125E1,-3.8197033E1,4.5850945E1,2.556999E1,1.2129394E2],"split_indices":[2,62,93,2,3,85,105,2,4,3,0,85,89,0,99,0,0,0,0,0,0,0,0,0,0,0,0,0,0],"split_type":[0,0,0,0,0,0,0,0,0,0,0,0,0,0,0,0,0,0,0,0,0,0,0,0,0,0,0,0,0],"sum_hessian":[9.14E2,7.11E2,2.03E2,2.85E2,4.26E2,1.57E2,4.6E1,5.4E1,2.31E2,3.99E2,2.7E1,1.22E2,3.5E1,1.1E1,3.5E1,1.3E1,4.1E1,1.33E2,9.8E1,3.79E2,2E1,1.7E1,1E1,4.7E1,7.5E1,1.9E1,1.6E1,1.2E1,2.3E1],"tree_param":{"num_deleted":"0","num_feature":"116","num_nodes":"29","size_leaf_vector":"1"}},{"base_weights":[5.7280912E0,-1.3949379E2,2.3242392E2,-2.5763968E2,-5.9884155E1,1.85434E2,1.08112816E2,-2.725804E2,4.6755013E0,-3.6081142E1,-4.938889E1,2.5117697E2,4.4513203E1,-5.0113674E1,-2.5240984E1,-5.0262065E0,3.303558E1,1.868739E1,7.8217636E1,-2.1988989E1,2.5977924E1],"categories":[],"categories_nodes":[],"categories_segments":[],"categories_sizes":[],"default_left":[0,0,0,0,0,0,0,0,0,0,0,0,0,0,0,0,0,0,0,0,0],"id":44,"left_children":[1,3,5,7,9,11,-1,13,-1,15,-1,17,19,-1,-1,-1,-1,-1,-1,-1,-1],"loss_changes":[2.9595166E7,5.123352E6,1.3596986E7,1.026046E6,3.3734115E6,3.081234E6,0E0,7.15065E5,0E0,1.6700506E6,0E0,7.492604E6,6.3182025E6,0E0,0E0,0E0,0E0,0E0,0E0,0E0,0E0],"parents":[2147483647,0,0,1,1,2,2,3,3,4,4,5,5,7,7,9,9,11,11,12,12],"right_children":[2,4,6,8,10,12,-1,14,-1,16,-1,18,20,-1,-1,-1,-1,-1,-1,-1,-1],"split_conditions":[2.8241053E-1,-7.8623426E-1,2.225904E0,-6.773983E-2,2.4200079E-1,1.0883657E0,1.08112816E2,-1.5472822E0,4.6755013E0,1.4164927E0,-4.938889E1,1.2305036E0,1.6442099E0,-5.0113674E1,-2.5240984E1,-5.0262065E0,3.303558E1,1.868739E1,7.8217636E1,-2.1988989E1,2.5977924E1],"split_indices":[99,33,2,85,103,82,0,2,0,85,0,110,73,0,0,0,0,0,0,0,0],"split_type":[0,0,0,0,0,0,0,0,0,0,0,0,0,0,0,0,0,0,0,0,0],"sum_hessian":[8.95E2,5.46E2,3.49E2,2.18E2,3.28E2,3.33E2,1.6E1,2.08E2,1E1,3.13E2,1.5E1,2.26E2,1.07E2,1.3E1,1.95E2,3.03E2,1E1,2.04E2,2.2E1,4.8E1,5.9E1],"tree_param":{"num_deleted":"0","num_feature":"116","num_nodes":"21","size_leaf_vector":"1"}},{"base_weights":[1.2947552E1,-1.2866426E2,2.3858153E2,-2.3433342E2,-7.144494E1,1.9642654E2,9.292454E1,-4.389255E2,-2.0526384E2,-2.7299832E2,-2.5378796E1,5.6819226E2,1.6704063E2,-2.8637695E1,-5.3102386E1,-2.2065962E1,-6.156629E0,-1.4620107E1,-6.747329E1,-5.626859E0,4.2042263E1,9.528854E0,8.923609E1,-4.1579033E1,2.04909E1],"categories":[],"categories_nodes":[],"categories_segments":[],"categories_sizes":[],"default_left":[0,0,0,0,0,0,0,0,0,0,0,0,0,0,0,0,0,0,0,0,0,0,0,0,0],"id":45,"left_children":[1,3,5,7,9,11,-1,13,15,17,19,21,23,-1,-1,-1,-1,-1,-1,-1,-1,-1,-1,-1,-1],"loss_changes":[2.9585458E7,3.40684E6,1.002886E7,1.003279E6,3.4400545E6,3.513568E6,0E0,1.891E4,3.665965E5,3.317405E6,4.2473445E6,3.5090505E6,7.166835E6,0E0,0E0,0E0,0E0,0E0,0E0,0E0,0E0,0E0,0E0,0E0,0E0],"parents":[2147483647,0,0,1,1,2,2,3,3,4,4,5,5,7,7,8,8,9,9,10,10,11,11,12,12],"right_children":[2,4,6,8,10,12,-1,14,16,18,20,22,24,-1,-1,-1,-1,-1,-1,-1,-1,-1,-1,-1,-1],"split_conditions":[3.9751247E-1,-8.188484E-1,2.1215332E0,-1.5307649E0,-4.6027943E-1,9.217571E-2,9.292454E1,-1.578624E0,-5.086044E-1,8.6200583E-1,1.4164927E0,4.3343163E-1,1.0535915E-1,-2.8637695E1,-5.3102386E1,-2.2065962E1,-6.156629E0,-1.4620107E1,-6.747329E1,-5.626859E0,4.2042263E1,9.528854E0,8.923609E1,-4.1579033E1,2.04909E1],"split_indices":[8,95,87,41,7,68,0,48,89,85,85,85,73,0,0,0,0,0,0,0,0,0,0,0,0],"split_type":[0,0,0,0,0,0,0,0,0,0,0,0,0,0,0,0,0,0,0,0,0,0,0,0,0],"sum_hessian":[9.22E2,5.67E2,3.55E2,1.97E2,3.7E2,3.37E2,1.8E1,2.1E1,1.76E2,6.7E1,3.03E2,2.2E1,3.15E2,1.1E1,1E1,1.58E2,1.8E1,5.3E1,1.4E1,2.85E2,1.8E1,1E1,1.2E1,1.8E1,2.97E2],"tree_param":{"num_deleted":"0","num_feature":"116","num_nodes":"25","size_leaf_vector":"1"}},{"base_weights":[9.598876E0,-8.862992E1,2.9141052E2,-1.64566E2,8.259732E0,6.157958E2,2.2750179E2,-1.8672765E2,4.0484364E1,3.858095E1,-2.692214E2,9.665119E0,1.0268461E2,-2.0887304E1,2.698597E2,-1.7125132E1,-4.218617E1,-1.2175633E1,2.6477308E1,1.9407972E0,4.5394806E1,1.7493794E0,-5.9940216E1,1.4162968E0,3.4708885E1],"categories":[],"categories_nodes":[],"categories_segments":[],"categories_sizes":[],"default_left":[0,0,0,0,0,0,0,0,0,0,0,0,0,0,0,0,0,0,0,0,0,0,0,0,0],"id":46,"left_children":[1,3,5,7,9,11,13,15,17,19,21,-1,-1,-1,23,-1,-1,-1,-1,-1,-1,-1,-1,-1,-1],"loss_changes":[2.5491448E7,5.027851E6,4.653716E6,1.755583E6,2.5616478E6,7.91039E6,3.846494E6,1.11455E6,1.4836512E6,2.1644205E6,2.861065E6,0E0,0E0,0E0,3.64337E6,0E0,0E0,0E0,0E0,0E0,0E0,0E0,0E0,0E0,0E0],"parents":[2147483647,0,0,1,1,2,2,3,3,4,4,5,5,6,6,7,7,8,8,9,9,10,10,14,14],"right_children":[2,4,6,8,10,12,14,16,18,20,22,-1,-1,-1,24,-1,-1,-1,-1,-1,-1,-1,-1,-1,-1],"split_conditions":[6.384552E-1,-3.431124E-1,-9.9942917E-1,5.791869E-1,6.038801E-1,4.3343163E-1,-2.1056023E0,-1.2612332E-2,1.2101189E-1,7.8187484E-1,1.3894233E-1,9.665119E0,1.0268461E2,-2.0887304E1,6.9097E-1,-1.7125132E1,-4.218617E1,-1.2175633E1,2.6477308E1,1.9407972E0,4.5394806E1,1.7493794E0,-5.9940216E1,1.4162968E0,3.4708885E1],"split_indices":[91,86,18,7,28,85,7,79,85,34,85,0,0,0,41,0,0,0,0,0,0,0,0,0,0],"split_type":[0,0,0,0,0,0,0,0,0,0,0,0,0,0,0,0,0,0,0,0,0,0,0,0,0],"sum_hessian":[9.17E2,6.81E2,2.36E2,3.81E2,3E2,3.6E1,2E2,3.44E2,3.7E1,2.72E2,2.8E1,1.7E1,1.9E1,1.7E1,1.83E2,3.26E2,1.8E1,2.2E1,1.5E1,2.62E2,1E1,1.6E1,1.2E1,4.3E1,1.4E2],"tree_param":{"num_deleted":"0","num_feature":"116","num_nodes":"25","size_leaf_vector":"1"}},{"base_weights":[1.1335403E1,-1.2923415E2,1.590713E2,-1.0593008E2,-5.0460617E2,1.2953764E2,9.9433136E1,-1.2811888E2,2.2196193E2,-8.098934E1,-1.9347824E1,5.1163063E1,2.5969385E2,-2.5585331E1,-8.486429E0,-5.424291E0,3.967863E1,2.4256618E0,5.4738186E1,-1.1675992E0,4.2221355E1],"categories":[],"categories_nodes":[],"categories_segments":[],"categories_sizes":[],"default_left":[0,0,0,0,0,0,0,0,0,0,0,0,0,0,0,0,0,0,0,0,0],"id":47,"left_children":[1,3,5,7,9,11,-1,13,15,-1,-1,17,19,-1,-1,-1,-1,-1,-1,-1,-1],"loss_changes":[1.9084612E7,4.0131985E6,1.0793675E7,3.3017525E6,2.251057E6,4.410804E6,0E0,2.271557E6,1.4434129E6,0E0,0E0,3.6316935E6,7.19868E6,0E0,0E0,0E0,0E0,0E0,0E0,0E0,0E0],"parents":[2147483647,0,0,1,1,2,2,3,3,4,4,5,5,7,7,8,8,11,11,12,12],"right_children":[2,4,6,8,10,12,-1,14,16,-1,-1,18,20,-1,-1,-1,-1,-1,-1,-1,-1],"split_conditions":[-1.21132106E-1,9.923051E-2,2.1215332E0,5.2551144E-1,-4.712548E-3,5.2873008E-2,9.9433136E1,-1.2885121E0,-7.0977926E-1,-8.098934E1,-1.9347824E1,2.0942364E0,3.1386086E-1,-2.5585331E1,-8.486429E0,-5.424291E0,3.967863E1,2.4256618E0,5.4738186E1,-1.1675992E0,4.2221355E1],"split_indices":[50,111,87,85,30,4,0,32,38,0,0,41,89,0,0,0,0,0,0,0,0],"split_type":[0,0,0,0,0,0,0,0,0,0,0,0,0,0,0,0,0,0,0,0,0],"sum_hessian":[9.15E2,4.69E2,4.46E2,4.44E2,2.5E1,4.33E2,1.3E1,4.17E2,2.7E1,1.1E1,1.4E1,2.72E2,1.61E2,1.03E2,3.14E2,1.1E1,1.6E1,2.6E2,1.2E1,6.1E1,1E2],"tree_param":{"num_deleted":"0","num_feature":"116","num_nodes":"21","size_leaf_vector":"1"}},{"base_weights":[1.0664121E1,-4.756265E0,9.8393654E1,-1.1943286E2,9.338629E1,-3.0674365E2,-9.103499E1,-2.2163832E2,1.25545906E2,-4.9645206E1,-2.3341518E1,-1.0535612E1,1.7556896E1,8.752928E0,-4.342374E1,5.335237E0,2.4896101E1],"categories":[],"categories_nodes":[],"categories_segments":[],"categories_sizes":[],"default_left":[0,0,0,0,0,0,0,0,0,0,0,0,0,0,0,0,0],"id":48,"left_children":[1,3,-1,5,7,9,11,13,15,-1,-1,-1,-1,-1,-1,-1,-1],"loss_changes":[1.3471845E7,9.982678E6,0E0,2.1196755E6,4.8982945E6,5.054525E5,1.403856E6,3.0338455E6,3.849156E6,0E0,0E0,0E0,0E0,0E0,0E0,0E0,0E0],"parents":[2147483647,0,0,1,1,3,3,4,4,5,5,6,6,7,7,8,8],"right_children":[2,4,-1,6,8,10,12,14,16,-1,-1,-1,-1,-1,-1,-1,-1],"split_conditions":[2.1306145E0,-3.1210265E-1,9.8393654E1,-1.418405E0,-1.2985187E0,-1.5579245E0,6.060434E-1,9.2328146E-2,4.3343163E-1,-4.9645206E1,-2.3341518E1,-1.0535612E1,1.7556896E1,8.752928E0,-4.342374E1,5.335237E0,2.4896101E1],"split_indices":[91,90,0,86,4,84,85,85,85,0,0,0,0,0,0,0,0],"split_type":[0,0,0,0,0,0,0,0,0,0,0,0,0,0,0,0,0],"sum_hessian":[8.95E2,8.83E2,1.2E1,4.07E2,4.76E2,5.1E1,3.56E2,4.3E1,4.33E2,1.1E1,4E1,3.39E2,1.7E1,1.8E1,2.5E1,2.75E2,1.58E2],"tree_param":{"num_deleted":"0","num_feature":"116","num_nodes":"17","size_leaf_vector":"1"}},{"base_weights":[7.4796257E0,-6.437414E1,2.1908691E2,-7.672564E1,3.675675E1,5.188434E2,1.6284662E2,-6.4757E1,-4.3370132E2,2.0862428E2,9.986784E1,2.1710252E2,-3.4127155E1,-1.4794738E1,-9.798359E-1,-2.1468666E1,-5.8042416E1,5.889227E1,-1.2342433E1,1.2995371E1,4.9234722E1,2.992335E1,-5.393537E1],"categories":[],"categories_nodes":[],"categories_segments":[],"categories_sizes":[],"default_left":[0,0,0,0,0,0,0,0,0,0,0,0,0,0,0,0,0,0,0,0,0,0,0],"id":49,"left_children":[1,3,5,7,-1,9,11,13,15,17,-1,19,21,-1,-1,-1,-1,-1,-1,-1,-1,-1,-1],"loss_changes":[1.439674E7,3.828309E6,3.876962E6,2.8875402E6,0E0,5.090779E6,2.20567E6,3.0557725E6,4.5766E5,3.3023598E6,0E0,3.7339195E6,8.0702505E6,0E0,0E0,0E0,0E0,0E0,0E0,0E0,0E0,0E0,0E0],"parents":[2147483647,0,0,1,1,2,2,3,3,5,5,6,6,7,7,8,8,9,9,11,11,12,12],"right_children":[2,4,6,8,-1,10,12,14,16,18,-1,20,22,-1,-1,-1,-1,-1,-1,-1,-1,-1,-1],"split_conditions":[7.241234E-1,2.2891448E0,-9.9942917E-1,1.566884E0,3.675675E1,1.6626623E0,1.5084143E0,-7.1472234E-1,5.0118387E-1,9.288221E-1,9.986784E1,1.7044418E0,1.7323871E0,-1.4794738E1,-9.798359E-1,-2.1468666E1,-5.8042416E1,5.889227E1,-1.2342433E1,1.2995371E1,4.9234722E1,2.992335E1,-5.393537E1],"split_indices":[106,89,18,93,0,32,85,34,18,106,0,8,25,0,0,0,0,0,0,0,0,0,0],"split_type":[0,0,0,0,0,0,0,0,0,0,0,0,0,0,0,0,0,0,0,0,0,0,0],"sum_hessian":[9.43E2,7.05E2,2.38E2,6.87E2,1.8E1,3.5E1,2.03E2,6.67E2,2E1,2.3E1,1.2E1,1.59E2,4.4E1,2.64E2,4.03E2,1E1,1E1,1E1,1.3E1,1.23E2,3.6E1,2.7E1,1.7E1],"tree_param":{"num_deleted":"0","num_feature":"116","num_nodes":"23","size_leaf_vector":"1"}},{"base_weights":[1.0171E1,-4.885554E1,3.2827744E2,-1.6406267E2,-1.8625605E1,2.2628154E2,7.136178E2,-3.9487053E1,-1.4172221E2,-1.886234E2,1.0208909E1,1.3514325E2,6.0340027E2,2.120571E1,9.5527E1,-1.5722995E1,-3.2219803E0,-9.335277E0,-5.0796677E1,-1.8027715E-1,4.4975796E1,-1.927149E1,3.2115463E1,8.884318E1,2.1779375E1],"categories":[],"categories_nodes":[],"categories_segments":[],"categories_sizes":[],"default_left":[0,0,0,0,0,0,0,0,0,0,0,0,0,0,0,0,0,0,0,0,0,0,0,0,0],"id":50,"left_children":[1,3,5,7,9,11,13,-1,15,17,19,21,23,-1,-1,-1,-1,-1,-1,-1,-1,-1,-1,-1,-1],"loss_changes":[1.7156474E7,2.679035E6,5.297298E6,7.13039E5,3.0086748E6,3.82375E6,3.109635E6,0E0,2.428715E5,2.6128398E6,2.7788002E6,5.978389E6,2.030919E6,0E0,0E0,0E0,0E0,0E0,0E0,0E0,0E0,0E0,0E0,0E0,0E0],"parents":[2147483647,0,0,1,1,2,2,3,3,4,4,5,5,6,6,8,8,9,9,10,10,11,11,12,12],"right_children":[2,4,6,8,10,12,14,-1,16,18,20,22,24,-1,-1,-1,-1,-1,-1,-1,-1,-1,-1,-1,-1],"split_conditions":[1.0078454E0,-9.6615636E-1,1.6997865E0,-1.5548584E0,-1.2268685E0,1.0546129E0,1.1102407E0,-3.9487053E1,1.3316015E0,9.39352E-1,2.0093005E0,1.5132525E0,1.5077837E0,2.120571E1,9.5527E1,-1.5722995E1,-3.2219803E0,-9.335277E0,-5.0796677E1,-1.8027715E-1,4.4975796E1,-1.927149E1,3.2115463E1,8.884318E1,2.1779375E1],"split_indices":[1,2,15,1,4,19,97,0,4,89,89,2,19,0,0,0,0,0,0,0,0,0,0,0,0],"split_type":[0,0,0,0,0,0,0,0,0,0,0,0,0,0,0,0,0,0,0,0,0,0,0,0,0],"sum_hessian":[9.1E2,7.69E2,1.41E2,1.58E2,6.11E2,1.14E2,2.7E1,1.1E1,1.47E2,8.7E1,5.24E2,9.4E1,2E1,1E1,1.7E1,1.28E2,1.9E1,6.9E1,1.8E1,5.12E2,1.2E1,3.4E1,6E1,1E1,1E1],"tree_param":{"num_deleted":"0","num_feature":"116","num_nodes":"25","size_leaf_vector":"1"}},{"base_weights":[1.0421902E1,-3.7473595E1,2.9144336E2,-2.6043707E2,-1.5196251E1,1.8274522E2,8.848143E1,-1.0947341E2,-7.537243E1,-5.4383316E1,1.5767351E2,-1.40135765E1,2.929888E2,-3.9667232E0,-2.6406336E1,-4.3164515E0,-4.9213814E1,2.5704565E1,-3.896519E1,1.5823585E1,-4.1803528E1,6.045993E1,1.3787142E1],"categories":[],"categories_nodes":[],"categories_segments":[],"categories_sizes":[],"default_left":[0,0,0,0,0,0,0,0,0,0,0,0,0,0,0,0,0,0,0,0,0,0,0],"id":51,"left_children":[1,3,5,7,9,11,-1,13,-1,15,17,19,21,-1,-1,-1,-1,-1,-1,-1,-1,-1,-1],"loss_changes":[1.2848927E7,4.0451575E6,8.641767E6,5.345552E6,5.0571875E6,2.6112068E6,0E0,6.157089E5,0E0,2.9434005E6,7.705971E6,3.263985E6,3.5551E6,0E0,0E0,0E0,0E0,0E0,0E0,0E0,0E0,0E0,0E0],"parents":[2147483647,0,0,1,1,2,2,3,3,4,4,5,5,7,7,9,9,10,10,11,11,12,12],"right_children":[2,4,6,8,10,12,-1,14,-1,16,18,20,22,-1,-1,-1,-1,-1,-1,-1,-1,-1,-1],"split_conditions":[1.1744134E0,-1.393837E0,6.6366047E-1,7.364133E-1,4.8067287E-1,1.453531E0,8.848143E1,-1.4636758E-1,-7.537243E1,9.359791E-1,1.327612E0,6.8197596E-1,1.7584417E0,-3.9667232E0,-2.6406336E1,-4.3164515E0,-4.9213814E1,2.5704565E1,-3.896519E1,1.5823585E1,-4.1803528E1,6.045993E1,1.3787142E1],"split_indices":[114,4,4,85,89,34,0,85,0,85,25,85,25,0,0,0,0,0,0,0,0,0,0],"split_type":[0,0,0,0,0,0,0,0,0,0,0,0,0,0,0,0,0,0,0,0,0,0,0],"sum_hessian":[9.51E2,8.14E2,1.37E2,7.2E1,7.42E2,1.18E2,1.9E1,5.7E1,1.5E1,6.06E2,1.36E2,4.3E1,7.5E1,4.1E1,1.6E1,5.93E2,1.3E1,1.16E2,2E1,3.1E1,1.2E1,2.3E1,5.2E1],"tree_param":{"num_deleted":"0","num_feature":"116","num_nodes":"23","size_leaf_vector":"1"}},{"base_weights":[-1.96319E1,-6.763502E1,1.6304213E2,-8.277291E1,3.89746E2,1.200035E2,6.7465195E1,-5.952044E1,-3.3248694E2,6.966289E0,6.2523872E1,1.7255159E2,-6.1814594E1,-1.0697698E1,8.121974E0,-6.9442894E1,1.6639393E1,2.3799112E0,3.359492E1],"categories":[],"categories_nodes":[],"categories_segments":[],"categories_sizes":[],"default_left":[0,0,0,0,0,0,0,0,0,0,0,0,0,0,0,0,0,0,0],"id":52,"left_children":[1,3,5,7,9,11,-1,13,15,-1,-1,17,-1,-1,-1,-1,-1,-1,-1],"loss_changes":[7.835156E6,4.9596055E6,3.93353E6,3.9436185E6,1.6464948E6,6.962452E6,0E0,4.225176E6,1.0703974E7,0E0,0E0,3.9701245E6,0E0,0E0,0E0,0E0,0E0,0E0,0E0],"parents":[2147483647,0,0,1,1,2,2,3,3,4,4,5,5,7,7,8,8,11,11],"right_children":[2,4,6,8,10,12,-1,14,16,-1,-1,18,-1,-1,-1,-1,-1,-1,-1],"split_conditions":[6.002468E-1,2.0496757E0,1.4751523E0,1.4164927E0,-4.208616E-1,1.1528313E0,6.7465195E1,4.2991722E-1,-4.993855E-1,6.966289E0,6.2523872E1,2.4210678E-1,-6.1814594E1,-1.0697698E1,8.121974E0,-6.9442894E1,1.6639393E1,2.3799112E0,3.359492E1],"split_indices":[7,33,32,85,4,104,0,47,4,0,0,85,0,0,0,0,0,0,0],"split_type":[0,0,0,0,0,0,0,0,0,0,0,0,0,0,0,0,0,0,0],"sum_hessian":[8.89E2,7.05E2,1.84E2,6.84E2,2.1E1,1.72E2,1.2E1,6.28E2,5.6E1,1E1,1.1E1,1.62E2,1E1,4.7E2,1.58E2,3.2E1,2.4E1,8.6E1,7.6E1],"tree_param":{"num_deleted":"0","num_feature":"116","num_nodes":"19","size_leaf_vector":"1"}},{"base_weights":[2.9511747E0,-5.6987705E1,1.462908E2,-7.396608E1,1.4665327E2,5.384168E2,8.4712944E1,-6.0982315E1,-4.597879E1,3.432442E2,-1.8255253E1,7.7739143E0,9.904513E1,3.715795E0,2.907734E2,-8.815414E0,5.5729327E0,4.7642784E1,1.0393985E1,-4.120239E0,4.4120983E1,-7.1272264E0,4.512855E1],"categories":[],"categories_nodes":[],"categories_segments":[],"categories_sizes":[],"default_left":[0,0,0,0,0,0,0,0,0,0,0,0,0,0,0,0,0,0,0,0,0,0,0],"id":53,"left_children":[1,3,5,7,9,11,13,15,-1,17,-1,-1,-1,19,21,-1,-1,-1,-1,-1,-1,-1,-1],"loss_changes":[7.8092795E6,2.2379398E6,6.379918E6,2.9144555E6,3.3612795E6,7.342618E6,3.903342E6,1.8364798E6,0E0,9.2078775E5,0E0,0E0,0E0,3.3771415E6,3.8998055E6,0E0,0E0,0E0,0E0,0E0,0E0,0E0,0E0],"parents":[2147483647,0,0,1,1,2,2,3,3,4,4,5,5,6,6,7,7,9,9,13,13,14,14],"right_children":[2,4,6,8,10,12,14,16,-1,18,-1,-1,-1,20,22,-1,-1,-1,-1,-1,-1,-1,-1],"split_conditions":[5.6983835E-1,1.2365682E0,-9.9942917E-1,1.736308E0,2.615829E-1,2.9497814E-1,3.4588867E-1,1.0916724E0,-4.597879E1,1.7179218E-1,-1.8255253E1,7.7739143E0,9.904513E1,2.10443E0,3.8086127E-2,-8.815414E0,5.5729327E0,4.7642784E1,1.0393985E1,-4.120239E0,4.4120983E1,-7.1272264E0,4.512855E1],"split_indices":[36,113,18,93,51,85,4,4,0,39,0,0,0,47,85,0,0,0,0,0,0,0,0],"split_type":[0,0,0,0,0,0,0,0,0,0,0,0,0,0,0,0,0,0,0,0,0,0,0],"sum_hessian":[9.05E2,6.39E2,2.66E2,5.91E2,4.8E1,3.4E1,2.32E2,5.74E2,1.7E1,3E1,1.8E1,1.8E1,1.6E1,1.68E2,6.4E1,4.66E2,1.08E2,1.8E1,1.2E1,1.54E2,1.4E1,2E1,4.4E1],"tree_param":{"num_deleted":"0","num_feature":"116","num_nodes":"23","size_leaf_vector":"1"}},{"base_weights":[-2.87371E1,-6.1498413E1,2.247697E2,-5.1809998E1,-5.6354855E1,6.9857855E2,9.532405E1,-4.3186287E1,-4.916035E1,2.7182957E1,1.0088895E2,-2.8395908E0,5.4726208E1,-6.295728E0,1.8288204E1,3.0384064E1,-1.3502362E1],"categories":[],"categories_nodes":[],"categories_segments":[],"categories_sizes":[],"default_left":[0,0,0,0,0,0,0,0,0,0,0,0,0,0,0,0,0],"id":54,"left_children":[1,3,5,7,-1,9,11,13,-1,-1,-1,15,-1,-1,-1,-1,-1],"loss_changes":[7.543849E6,3.8473922E6,6.245318E6,2.9536802E6,0E0,2.364727E6,3.7297288E6,3.495891E6,0E0,0E0,0E0,2.9602485E6,0E0,0E0,0E0,0E0,0E0],"parents":[2147483647,0,0,1,1,2,2,3,3,5,5,6,6,7,7,11,11],"right_children":[2,4,6,8,-1,10,12,14,-1,-1,-1,16,-1,-1,-1,-1,-1],"split_conditions":[1.4822496E0,1.6677421E0,1.5468389E0,3.0712903E0,-5.6354855E1,1.3889953E0,2.1601987E0,9.245208E-1,-4.916035E1,2.7182957E1,1.0088895E2,-6.59381E-1,5.4726208E1,-6.295728E0,1.8288204E1,3.0384064E1,-1.3502362E1],"split_indices":[45,64,42,105,0,38,47,39,0,0,0,6,0,0,0,0,0],"split_type":[0,0,0,0,0,0,0,0,0,0,0,0,0,0,0,0,0],"sum_hessian":[9.03E2,8.01E2,1.02E2,7.88E2,1.3E1,2E1,8.2E1,7.75E2,1.3E1,1E1,1E1,6.9E1,1.3E1,7.14E2,6.1E1,2E1,4.9E1],"tree_param":{"num_deleted":"0","num_feature":"116","num_nodes":"17","size_leaf_vector":"1"}},{"base_weights":[2.122166E0,-4.2286644E1,1.1677091E2,-3.0676844E1,-3.351818E2,6.262501E1,8.212087E1,-4.4135498E1,3.1731418E2,-1.0403761E1,-5.6824005E1,-2.6265826E2,1.2605455E2,-2.2588936E1,-3.2075124E0,-8.496465E0,6.1680115E1,8.511731E0,-4.977092E1,3.2329224E1,3.6868234E0],"categories":[],"categories_nodes":[],"categories_segments":[],"categories_sizes":[],"default_left":[0,0,0,0,0,0,0,0,0,0,0,0,0,0,0,0,0,0,0,0,0],"id":55,"left_children":[1,3,5,7,9,-1,11,13,15,-1,-1,17,19,-1,-1,-1,-1,-1,-1,-1,-1],"loss_changes":[4.668527E6,2.2270985E6,4.416362E6,3.01605E6,1.2284475E6,0E0,3.7318792E6,1.3357675E6,2.9963202E6,0E0,0E0,2.373628E6,3.7757608E6,0E0,0E0,0E0,0E0,0E0,0E0,0E0,0E0],"parents":[2147483647,0,0,1,1,2,2,3,3,4,4,6,6,7,7,8,8,11,11,12,12],"right_children":[2,4,6,8,10,-1,12,14,16,-1,-1,18,20,-1,-1,-1,-1,-1,-1,-1,-1],"split_conditions":[6.372811E-1,5.816899E-1,4.9229443E-1,1.4394866E0,-1.4636758E-1,6.262501E1,5.268758E-1,-1.4313563E0,-1.23288035E-1,-1.0403761E1,-5.6824005E1,8.734369E-1,9.9706495E-1,-2.2588936E1,-3.2075124E0,-8.496465E0,6.1680115E1,8.511731E0,-4.977092E1,3.2329224E1,3.6868234E0],"split_indices":[48,47,112,85,85,0,75,28,7,0,0,50,70,0,0,0,0,0,0,0,0],"split_type":[0,0,0,0,0,0,0,0,0,0,0,0,0,0,0,0,0,0,0,0,0],"sum_hessian":[9.13E2,6.59E2,2.54E2,6.36E2,2.3E1,1.4E1,2.4E2,6.14E2,2.2E1,1.3E1,1E1,2.6E1,2.14E2,3.6E1,5.78E2,1E1,1.2E1,1.1E1,1.5E1,6.5E1,1.49E2],"tree_param":{"num_deleted":"0","num_feature":"116","num_nodes":"21","size_leaf_vector":"1"}},{"base_weights":[3.2492418E0,-7.474616E0,5.661908E1,-9.6623856E1,4.168363E1,-7.845833E1,-5.4676006E1,-1.945678E1,1.519851E2,-9.665394E0,2.8984308E1,1.1964322E0,-3.7950565E1,-1.9251492E0,2.9051468E1],"categories":[],"categories_nodes":[],"categories_segments":[],"categories_sizes":[],"default_left":[0,0,0,0,0,0,0,0,0,0,0,0,0,0,0],"id":56,"left_children":[1,3,-1,5,7,9,-1,11,13,-1,-1,-1,-1,-1,-1],"loss_changes":[5.49003E6,3.9215622E6,0E0,2.5144155E6,3.8971445E6,2.120062E6,0E0,4.2289165E6,4.8978075E6,0E0,0E0,0E0,0E0,0E0,0E0],"parents":[2147483647,0,0,1,1,3,3,4,4,5,5,7,7,8,8],"right_children":[2,4,-1,6,8,10,-1,12,14,-1,-1,-1,-1,-1,-1],"split_conditions":[2.1707163E0,-5.323481E-1,5.661908E1,1.2892535E-1,1.531813E-1,8.017741E-1,-5.4676006E1,1.7584417E0,-1.8456617E-1,-9.665394E0,2.8984308E1,1.1964322E0,-3.7950565E1,-1.9251492E0,2.9051468E1],"split_indices":[33,63,0,25,4,6,0,25,85,0,0,0,0,0,0],"split_type":[0,0,0,0,0,0,0,0,0,0,0,0,0,0,0],"sum_hessian":[9.06E2,8.91E2,1.5E1,3.16E2,5.75E2,3.06E2,1E1,3.71E2,2.04E2,2.93E2,1.3E1,3.43E2,2.8E1,9.2E1,1.12E2],"tree_param":{"num_deleted":"0","num_feature":"116","num_nodes":"15","size_leaf_vector":"1"}},{"base_weights":[-2.3667809E1,-7.568747E0,-2.3643636E2,-1.8951708E1,6.8461365E1,-1.2495863E2,-7.079616E1,-9.333846E0,-3.8008E2,-2.0234296E2,1.5617426E1,-1.7756243E0,4.506439E1,-6.487954E1,-4.800957E0,-7.4385924E0,-4.1696327E1],"categories":[],"categories_nodes":[],"categories_segments":[],"categories_sizes":[],"default_left":[0,0,0,0,0,0,0,0,0,0,0,0,0,0,0,0,0],"id":57,"left_children":[1,3,5,7,-1,9,-1,11,13,15,-1,-1,-1,-1,-1,-1,-1],"loss_changes":[3.1648678E6,6.817654E6,3.239681E6,2.945155E6,0E0,1.2597465E6,0E0,3.2314752E6,1.9007475E6,1.1462542E6,0E0,0E0,0E0,0E0,0E0,0E0,0E0],"parents":[2147483647,0,0,1,1,2,2,3,3,5,5,7,7,8,8,9,9],"right_children":[2,4,6,8,-1,10,-1,12,14,16,-1,-1,-1,-1,-1,-1,-1],"split_conditions":[1.6190895E0,2.886922E0,2.4535663E-1,2.136015E0,6.8461365E1,-3.7012283E-2,-7.079616E1,2.0433471E0,1.2750717E0,-8.981504E-1,1.5617426E1,-1.7756243E0,4.506439E1,-6.487954E1,-4.800957E0,-7.4385924E0,-4.1696327E1],"split_indices":[3,85,0,31,0,1,0,26,74,109,0,0,0,0,0,0,0],"split_type":[0,0,0,0,0,0,0,0,0,0,0,0,0,0,0,0,0],"sum_hessian":[9.23E2,8.6E2,6.3E1,8.48E2,1.2E1,5.3E1,1E1,8.28E2,2E1,4.2E1,1.1E1,8.15E2,1.3E1,1E1,1E1,2.8E1,1.4E1],"tree_param":{"num_deleted":"0","num_feature":"116","num_nodes":"17","size_leaf_vector":"1"}},{"base_weights":[2.402144E1,1.2527195E1,7.112329E1,2.4832408E2,-1.29637E1,1.2668238E2,6.767353E1,-4.5598615E2,-6.712216E-1,2.4444835E0,4.03912E1,-1.9701658E1,-6.3894966E1,1.2212225E0,-3.6804203E1],"categories":[],"categories_nodes":[],"categories_segments":[],"categories_sizes":[],"default_left":[0,0,0,0,0,0,0,0,0,0,0,0,0,0,0],"id":58,"left_children":[1,3,-1,5,7,9,-1,11,13,-1,-1,-1,-1,-1,-1],"loss_changes":[7.2017735E6,5.4220795E6,0E0,4.414374E6,4.437705E6,1.9925825E6,0E0,7.90553E5,3.7717612E6,0E0,0E0,0E0,0E0,0E0,0E0],"parents":[2147483647,0,0,1,1,3,3,4,4,5,5,7,7,8,8],"right_children":[2,4,-1,6,8,10,-1,12,14,-1,-1,-1,-1,-1,-1],"split_conditions":[2.225904E0,-1.0637633E0,7.112329E1,1.5044264E0,-9.356006E-1,1.3098983E0,6.767353E1,6.7240214E-1,1.9548284E0,2.4444835E0,4.03912E1,-1.9701658E1,-6.3894966E1,1.2212225E0,-3.6804203E1],"split_indices":[2,5,0,44,5,113,0,93,35,0,0,0,0,0,0],"split_type":[0,0,0,0,0,0,0,0,0,0,0,0,0,0,0],"sum_hessian":[9.12E2,8.99E2,1.3E1,8.6E1,8.13E2,6.9E1,1.7E1,2E1,7.93E2,5.2E1,1.7E1,1E1,1E1,7.68E2,2.5E1],"tree_param":{"num_deleted":"0","num_feature":"116","num_nodes":"15","size_leaf_vector":"1"}},{"base_weights":[7.1089025E0,-1.8873278E1,2.1688455E2,-4.159824E0,-1.8594403E2,2.7078503E2,-2.279998E1,-2.8368408E1,1.7914854E2,3.2165127E1,-3.6124258E2,1.970346E2,6.482574E1,-8.172589E0,1.5283446E0,2.3993298E1,-2.4579994E1,-5.196896E0,-6.4272446E1,3.1243006E1,-1.2269974E0],"categories":[],"categories_nodes":[],"categories_segments":[],"categories_sizes":[],"default_left":[0,0,0,0,0,0,0,0,0,0,0,0,0,0,0,0,0,0,0,0,0],"id":59,"left_children":[1,3,5,7,9,11,-1,13,15,-1,17,19,-1,-1,-1,-1,-1,-1,-1,-1,-1],"loss_changes":[4.995348E6,2.0043154E6,2.54541E6,3.3472515E6,6.105119E6,2.2777825E6,0E0,1.5537208E6,2.3910122E6,0E0,4.2858735E6,1.9157678E6,0E0,0E0,0E0,0E0,0E0,0E0,0E0,0E0,0E0],"parents":[2147483647,0,0,1,1,2,2,3,3,4,4,5,5,7,7,8,8,10,10,11,11],"right_children":[2,4,6,8,10,12,-1,14,16,-1,18,20,-1,-1,-1,-1,-1,-1,-1,-1,-1],"split_conditions":[1.3491986E0,1.0716218E0,3.062854E0,4.0081415E-1,1.9942664E-1,2.069108E0,-2.279998E1,-5.7084817E-1,1.727007E0,3.2165127E1,1.0459254E0,1.0414945E0,6.482574E1,-8.172589E0,1.5283446E0,2.3993298E1,-2.4579994E1,-5.196896E0,-6.4272446E1,3.1243006E1,-1.2269974E0],"split_indices":[89,85,93,85,40,15,0,34,110,0,109,72,0,0,0,0,0,0,0,0,0],"split_type":[0,0,0,0,0,0,0,0,0,0,0,0,0,0,0,0,0,0,0,0,0],"sum_hessian":[9.13E2,8.14E2,9.9E1,7.5E2,6.4E1,8.9E1,1E1,6.64E2,8.6E1,1.6E1,4.8E1,7.7E1,1.2E1,2.98E2,3.66E2,7.6E1,1E1,2.4E1,2.4E1,4.9E1,2.8E1],"tree_param":{"num_deleted":"0","num_feature":"116","num_nodes":"21","size_leaf_vector":"1"}},{"base_weights":[-7.3988595E0,-1.4672421E1,4.731865E1,-5.5454993E0,-3.420638E2,-1.7760206E1,3.9070853E2,-6.868663E1,1.4594154E1,-2.8700607E0,4.5280693E1,6.134134E1,9.627356E0],"categories":[],"categories_nodes":[],"categories_segments":[],"categories_sizes":[],"default_left":[0,0,0,0,0,0,0,0,0,0,0,0,0],"id":60,"left_children":[1,3,-1,5,7,9,11,-1,-1,-1,-1,-1,-1],"loss_changes":[3.2821952E6,2.754165E6,0E0,4.3699545E6,4.407174E6,4.530617E6,1.6522648E6,0E0,0E0,0E0,0E0,0E0,0E0],"parents":[2147483647,0,0,1,1,3,3,4,4,5,5,6,6],"right_children":[2,4,-1,6,8,10,12,-1,-1,-1,-1,-1,-1],"split_conditions":[2.16679E0,1.9127625E0,